{"learner":{"attributes":{},"feature_names":[],"feature_types":[],"gradient_booster":{"model":{"gbtree_model_param":{"num_trees":"900","size_leaf_vector":"0"},"tree_info":[0,1,2,0,1,2,0,1,2,0,1,2,0,1,2,0,1,2,0,1,2,0,1,2,0,1,2,0,1,2,0,1,2,0,1,2,0,1,2,0,1,2,0,1,2,0,1,2,0,1,2,0,1,2,0,1,2,0,1,2,0,1,2,0,1,2,0,1,2,0,1,2,0,1,2,0,1,2,0,1,2,0,1,2,0,1,2,0,1,2,0,1,2,0,1,2,0,1,2,0,1,2,0,1,2,0,1,2,0,1,2,0,1,2,0,1,2,0,1,2,0,1,2,0,1,2,0,1,2,0,1,2,0,1,2,0,1,2,0,1,2,0,1,2,0,1,2,0,1,2,0,1,2,0,1,2,0,1,2,0,1,2,0,1,2,0,1,2,0,1,2,0,1,2,0,1,2,0,1,2,0,1,2,0,1,2,0,1,2,0,1,2,0,1,2,0,1,2,0,1,2,0,1,2,0,1,2,0,1,2,0,1,2,0,1,2,0,1,2,0,1,2,0,1,2,0,1,2,0,1,2,0,1,2,0,1,2,0,1,2,0,1,2,0,1,2,0,1,2,0,1,2,0,1,2,0,1,2,0,1,2,0,1,2,0,1,2,0,1,2,0,1,2,0,1,2,0,1,2,0,1,2,0,1,2,0,1,2,0,1,2,0,1,2,0,1,2,0,1,2,0,1,2,0,1,2,0,1,2,0,1,2,0,1,2,0,1,2,0,1,2,0,1,2,0,1,2,0,1,2,0,1,2,0,1,2,0,1,2,0,1,2,0,1,2,0,1,2,0,1,2,0,1,2,0,1,2,0,1,2,0,1,2,0,1,2,0,1,2,0,1,2,0,1,2,0,1,2,0,1,2,0,1,2,0,1,2,0,1,2,0,1,2,0,1,2,0,1,2,0,1,2,0,1,2,0,1,2,0,1,2,0,1,2,0,1,2,0,1,2,0,1,2,0,1,2,0,1,2,0,1,2,0,1,2,0,1,2,0,1,2,0,1,2,0,1,2,0,1,2,0,1,2,0,1,2,0,1,2,0,1,2,0,1,2,0,1,2,0,1,2,0,1,2,0,1,2,0,1,2,0,1,2,0,1,2,0,1,2,0,1,2,0,1,2,0,1,2,0,1,2,0,1,2,0,1,2,0,1,2,0,1,2,0,1,2,0,1,2,0,1,2,0,1,2,0,1,2,0,1,2,0,1,2,0,1,2,0,1,2,0,1,2,0,1,2,0,1,2,0,1,2,0,1,2,0,1,2,0,1,2,0,1,2,0,1,2,0,1,2,0,1,2,0,1,2,0,1,2,0,1,2,0,1,2,0,1,2,0,1,2,0,1,2,0,1,2,0,1,2,0,1,2,0,1,2,0,1,2,0,1,2,0,1,2,0,1,2,0,1,2,0,1,2,0,1,2,0,1,2,0,1,2,0,1,2,0,1,2,0,1,2,0,1,2,0,1,2,0,1,2,0,1,2,0,1,2,0,1,2,0,1,2,0,1,2,0,1,2,0,1,2,0,1,2,0,1,2,0,1,2,0,1,2,0,1,2,0,1,2,0,1,2,0,1,2,0,1,2,0,1,2,0,1,2,0,1,2,0,1,2,0,1,2,0,1,2,0,1,2,0,1,2,0,1,2,0,1,2,0,1,2,0,1,2,0,1,2,0,1,2,0,1,2,0,1,2,0,1,2,0,1,2,0,1,2,0,1,2,0,1,2,0,1,2,0,1,2,0,1,2,0,1,2,0,1,2,0,1,2,0,1,2,0,1,2,0,1,2,0,1,2,0,1,2,0,1,2,0,1,2,0,1,2,0,1,2,0,1,2,0,1,2,0,1,2,0,1,2,0,1,2,0,1,2,0,1,2,0,1,2,0,1,2,0,1,2,0,1,2,0,1,2,0,1,2,0,1,2,0,1,2,0,1,2,0,1,2,0,1,2,0,1,2,0,1,2,0,1,2,0,1,2,0,1,2,0,1,2,0,1,2,0,1,2,0,1,2,0,1,2,0,1,2,0,1,2,0,1,2],"trees":[{"base_weights":[3.73873E-1,3.313867E-1,4.530147E-1,2.600894E-1,3.8931185E-1,7.531621E-1,4.0915924E-1,-2.566416E-2,3.0221865E-1,5.6227756E-1,3.6563754E-1,3.2432428E-1,8.1269145E-1,-6.0171966E-2,4.18252E-1],"categories":[],"categories_nodes":[],"categories_segments":[],"categories_sizes":[],"default_left":[true,true,true,true,true,true,true,false,false,false,false,false,false,false,false],"id":0,"left_children":[1,3,5,7,9,11,13,-1,-1,-1,-1,-1,-1,-1,-1],"loss_changes":[2.1854065E1,1.7499939E1,2.9746124E1,2.3042908E1,9.415009E0,7.1368256E0,8.536011E0,0E0,0E0,0E0,0E0,0E0,0E0,0E0,0E0],"parents":[2147483647,0,0,1,1,2,2,3,3,4,4,5,5,6,6],"right_children":[2,4,6,8,10,12,14,-1,-1,-1,-1,-1,-1,-1,-1],"split_conditions":[1.95E1,1.35E1,1.15E1,6.5E0,7.245E-1,4.5E0,2.825E1,-2.566416E-3,3.0221865E-2,5.6227755E-2,3.6563754E-2,3.243243E-2,8.1269145E-2,-6.0171965E-3,4.18252E-2],"split_indices":[50,102,0,53,13,83,67,0,0,0,0,0,0,0,0],"split_type":[0,0,0,0,0,0,0,0,0,0,0,0,0,0,0],"sum_hessian":[6.543111E3,4.2608887E3,2.2822222E3,1.9124443E3,2.3484443E3,2.888889E2,1.9933333E3,2.4577776E2,1.6666666E3,2.7999997E2,2.0684443E3,3.5999996E1,2.5288887E2,3.7777775E1,1.9555554E3],"tree_param":{"num_deleted":"0","num_feature":"105","num_nodes":"15","size_leaf_vector":"0"}},{"base_weights":[3.4438083E-1,3.8464946E-1,2.6906416E-1,4.513675E-1,3.3014894E-1,-2.6446959E-2,3.1188363E-1,7.3615485E-1,4.089546E-1,1.6725975E-1,3.5210735E-1,4.0540537E-1,-8.9277945E-2,7.908309E-1,3.022318E-1],"categories":[],"categories_nodes":[],"categories_segments":[],"categories_sizes":[],"default_left":[true,true,true,true,true,true,true,false,false,false,false,false,false,false,false],"id":1,"left_children":[1,3,5,7,9,11,13,-1,-1,-1,-1,-1,-1,-1,-1],"loss_changes":[1.974408E1,1.5347961E1,2.8899307E1,2.2810791E1,8.344574E0,7.901954E0,8.980255E0,0E0,0E0,0E0,0E0,0E0,0E0,0E0,0E0],"parents":[2147483647,0,0,1,1,2,2,3,3,4,4,5,5,6,6],"right_children":[2,4,6,8,10,12,14,-1,-1,-1,-1,-1,-1,-1,-1],"split_conditions":[1.95E1,1.35E1,1.15E1,6.5E0,7.245E-1,4.5E0,2.825E1,7.3615484E-2,4.089546E-2,1.6725976E-2,3.5210736E-2,4.054054E-2,-8.927795E-3,7.908309E-2,3.022318E-2],"split_indices":[50,102,0,53,13,83,67,0,0,0,0,0,0,0,0],"split_type":[0,0,0,0,0,0,0,0,0,0,0,0,0,0,0],"sum_hessian":[6.543111E3,4.2608887E3,2.2822222E3,1.9124443E3,2.3484443E3,2.888889E2,1.9933333E3,2.4577776E2,1.6666666E3,2.7999997E2,2.0684443E3,3.5999996E1,2.5288887E2,3.7777775E1,1.9555554E3],"tree_param":{"num_deleted":"0","num_feature":"105","num_nodes":"15","size_leaf_vector":"0"}},{"base_weights":[-7.1825397E-1,-7.1840036E-1,-2.5544848E-8,-7.190257E-1,-5.6043965E-1,-7.1942157E-1,-4.9624065E-1,-6.455697E-1,-3.576279E-8],"categories":[],"categories_nodes":[],"categories_segments":[],"categories_sizes":[],"default_left":[true,true,false,true,true,true,true,false,false],"id":2,"left_children":[1,3,-1,-1,7,-1,-1,-1,-1],"loss_changes":[6.879883E-1,2.434082E-1,0E0,2.175293E-1,1.4472103E0,0E0,0E0,0E0,0E0],"parents":[2147483647,0,0,1,1,3,3,4,4],"right_children":[2,4,-1,-1,8,-1,-1,-1,-1],"split_conditions":[5.465E1,1.455E1,-2.5544848E-9,-7.1902566E-2,1.45E1,-7.194216E-2,-4.9624067E-2,-6.455697E-2,-3.5762788E-9],"split_indices":[68,25,0,71,34,2147483647,2147483647,0,0],"split_type":[0,0,0,0,0,0,0,0,0],"sum_hessian":[6.543111E3,6.5417773E3,1.3333333E0,6.512444E3,2.9333332E1,6.4986665E3,1.3777777E1,2.5333332E1,3.9999998E0],"tree_param":{"num_deleted":"2","num_feature":"105","num_nodes":"9","size_leaf_vector":"0"}},{"base_weights":[3.4028986E-1,3.023265E-1,4.1061243E-1,2.3821892E-1,3.5409653E-1,6.729208E-1,3.717024E-1,-2.2553312E-2,2.7603948E-1,2.68428E-1,3.9237508E-1,1.0855368E0,6.175595E-1,4.2776084E-1,2.998609E-1],"categories":[],"categories_nodes":[],"categories_segments":[],"categories_sizes":[],"default_left":[true,true,true,true,true,true,true,false,false,false,false,false,false,false,false],"id":3,"left_children":[1,3,5,7,9,11,13,-1,-1,-1,-1,-1,-1,-1,-1],"loss_changes":[1.7654419E1,1.4281342E1,2.3550201E1,1.9108864E1,7.740753E0,6.1822815E0,8.058899E0,0E0,0E0,0E0,0E0,0E0,0E0,0E0,0E0],"parents":[2147483647,0,0,1,1,2,2,3,3,4,4,5,5,6,6],"right_children":[2,4,6,8,10,12,14,-1,-1,-1,-1,-1,-1,-1,-1],"split_conditions":[1.95E1,1.35E1,1.15E1,6.5E0,1.9625E2,1.5E0,2.15E1,-2.2553313E-3,2.7603948E-2,2.68428E-2,3.923751E-2,1.08553685E-1,6.175595E-2,4.2776085E-2,2.998609E-2],"split_indices":[50,102,0,53,104,2,41,0,0,0,0,0,0,0,0],"split_type":[0,0,0,0,0,0,0,0,0,0,0,0,0,0,0],"sum_hessian":[6.6584155E3,4.3275205E3,2.3308953E3,1.935886E3,2.3916345E3,2.9898972E2,2.0319056E3,2.452556E2,1.6906304E3,7.410827E2,1.6505518E3,3.3168907E1,2.6582083E2,1.13854E3,8.9336554E2],"tree_param":{"num_deleted":"0","num_feature":"105","num_nodes":"15","size_leaf_vector":"0"}},{"base_weights":[3.1400204E-1,-3.5715938E-2,3.214641E-1,-2.1312623E-1,2.0631036E-1,3.1183913E-1,5.531994E-1,-4.6329668E-1,4.0966485E-2,9.7348446E-1,9.680621E-2,2.6866084E-1,3.644679E-1,2.0368215E-1,6.1437076E-1],"categories":[],"categories_nodes":[],"categories_segments":[],"categories_sizes":[],"default_left":[true,true,true,true,true,true,true,false,false,false,false,false,false,false,false],"id":4,"left_children":[1,3,5,7,9,11,13,-1,-1,-1,-1,-1,-1,-1,-1],"loss_changes":[1.7365662E1,6.048045E0,1.4350525E1,5.179204E0,4.917136E0,1.4113647E1,5.398819E0,0E0,0E0,0E0,0E0,0E0,0E0,0E0,0E0],"parents":[2147483647,0,0,1,1,2,2,3,3,4,4,5,5,6,6],"right_children":[2,4,6,8,10,12,14,-1,-1,-1,-1,-1,-1,-1,-1],"split_conditions":[3.355E1,1.55E1,2.225E1,2.045E1,1.8849998E1,4.835E1,5.5E0,-4.632967E-2,4.0966487E-3,9.7348444E-2,9.680621E-3,2.6866084E-2,3.644679E-2,2.0368217E-2,6.1437078E-2],"split_indices":[5,52,11,69,69,56,98,0,0,0,0,0,0,0,0],"split_type":[0,0,0,0,0,0,0,0,0,0,0,0,0,0,0],"sum_hessian":[6.649123E3,1.388314E2,6.5102915E3,8.017839E1,5.865301E1,6.252927E3,2.5736493E2,3.998615E1,4.019224E1,6.3407164E0,5.2312298E1,3.438213E3,2.8147136E3,3.897895E1,2.1838599E2],"tree_param":{"num_deleted":"0","num_feature":"105","num_nodes":"15","size_leaf_vector":"0"}},{"base_weights":[-6.914704E-1,-6.9161886E-1,1.0406912E-2,-6.92251E-1,-5.3330314E-1,-6.926628E-1,-4.6301353E-1,-6.189298E-1,1.4424641E-2],"categories":[],"categories_nodes":[],"categories_segments":[],"categories_sizes":[],"default_left":[true,true,false,true,true,true,true,false,false],"id":5,"left_children":[1,3,-1,-1,7,-1,-1,-1,-1],"loss_changes":[6.633301E-1,2.607422E-1,0E0,2.709961E-1,1.3875408E0,0E0,0E0,0E0,0E0],"parents":[2147483647,0,0,1,1,3,3,4,4],"right_children":[2,4,-1,-1,8,-1,-1,-1,-1],"split_conditions":[5.465E1,1.455E1,1.0406913E-3,-6.92251E-2,1.45E1,-6.926628E-2,-4.6301354E-2,-6.1892983E-2,1.4424641E-3],"split_indices":[68,25,0,71,34,2147483647,2147483647,0,0],"split_type":[0,0,0,0,0,0,0,0,0],"sum_hessian":[6.296137E3,6.2948203E3,1.3168715E0,6.266426E3,2.8394695E1,6.2531714E3,1.3254057E1,2.4443443E1,3.951253E0],"tree_param":{"num_deleted":"2","num_feature":"105","num_nodes":"9","size_leaf_vector":"0"}},{"base_weights":[3.1111103E-1,3.960307E-1,2.832556E-1,5.0473315E-1,3.1104943E-1,2.3259513E-1,3.251054E-1,4.5774835E-1,8.422008E-1,5.766498E-1,2.790126E-1,2.1942513E-2,2.5988597E-1,2.2541504E-1,3.6492482E-1],"categories":[],"categories_nodes":[],"categories_segments":[],"categories_sizes":[],"default_left":[true,true,true,true,true,true,true,false,false,false,false,false,false,false,false],"id":6,"left_children":[1,3,5,7,9,11,13,-1,-1,-1,-1,-1,-1,-1,-1],"loss_changes":[1.5869324E1,1.5235321E1,1.0717773E1,1.1181091E1,7.8185883E0,1.325428E1,1.0974518E1,0E0,0E0,0E0,0E0,0E0,0E0,0E0,0E0],"parents":[2147483647,0,0,1,1,2,2,3,3,4,4,5,5,6,6],"right_children":[2,4,6,8,10,12,14,-1,-1,-1,-1,-1,-1,-1,-1],"split_conditions":[3.635E1,4.825E1,1.35E1,2.0575E2,9.3149994E1,6.5E0,1.9675E2,4.5774836E-2,8.422008E-2,5.766498E-2,2.790126E-2,2.1942514E-3,2.5988597E-2,2.2541504E-2,3.649248E-2],"split_indices":[5,4,102,104,76,53,104,0,0,0,0,0,0,0,0],"split_type":[0,0,0,0,0,0,0,0,0,0,0,0,0,0,0],"sum_hessian":[6.7551475E3,1.6652557E3,5.0898916E3,7.2848566E2,9.367701E2,2.3055327E3,2.7843591E3,6.4152423E2,8.696138E1,9.9001564E1,8.377685E2,2.6463907E2,2.0408936E3,7.966238E2,1.9877354E3],"tree_param":{"num_deleted":"0","num_feature":"105","num_nodes":"15","size_leaf_vector":"0"}},{"base_weights":[2.8755215E-1,2.0329545E-1,3.1480244E-1,6.436809E-2,2.7175787E-1,2.984184E-1,4.4609717E-1,-3.4030944E-2,2.2417772E-1,3.1813467E-1,1.2900268E-1,2.4409088E-1,3.384912E-1,-1.2773432E-2,4.7214046E-1],"categories":[],"categories_nodes":[],"categories_segments":[],"categories_sizes":[],"default_left":[true,true,true,true,true,true,true,false,false,false,false,false,false,false,false],"id":7,"left_children":[1,3,5,7,9,11,13,-1,-1,-1,-1,-1,-1,-1,-1],"loss_changes":[1.54104E1,1.5674942E1,1.0817902E1,8.592875E0,7.274086E0,9.777283E0,6.731415E0,0E0,0E0,0E0,0E0,0E0,0E0,0E0,0E0],"parents":[2147483647,0,0,1,1,2,2,3,3,4,4,5,5,6,6],"right_children":[2,4,6,8,10,12,14,-1,-1,-1,-1,-1,-1,-1,-1],"split_conditions":[3.635E1,4.815E1,2.275E1,2.25E1,6.4049995E-1,1.15E1,1.485E1,-3.4030944E-3,2.2417773E-2,3.181347E-2,1.2900268E-2,2.440909E-2,3.384912E-2,-1.2773433E-3,4.7214046E-2],"split_indices":[5,4,22,41,55,80,63,0,0,0,0,0,0,0,0],"split_type":[0,0,0,0,0,0,0,0,0,0,0,0,0,0,0],"sum_hessian":[6.7386562E3,1.6488727E3,5.0897837E3,5.4495764E2,1.103915E3,4.528013E3,5.6177045E2,3.3777045E2,2.071872E2,8.3229834E2,2.7161673E2,1.9251458E3,2.6028674E3,3.0198385E1,5.31572E2],"tree_param":{"num_deleted":"0","num_feature":"105","num_nodes":"15","size_leaf_vector":"0"}},{"base_weights":[-6.683632E-1,-6.685139E-1,1.5629025E-2,-6.689355E-1,-4.4163987E-1,-6.6958106E-1,-5.070642E-1,5.057622E-1,-5.7138294E-1],"categories":[],"categories_nodes":[],"categories_segments":[],"categories_sizes":[],"default_left":[true,true,false,true,true,true,true,false,false],"id":8,"left_children":[1,3,-1,-1,7,-1,-1,-1,-1],"loss_changes":[6.333008E-1,2.8271484E-1,0E0,2.9052734E-1,2.0284495E0,0E0,0E0,0E0,0E0],"parents":[2147483647,0,0,1,1,3,3,4,4],"right_children":[2,4,-1,-1,8,-1,-1,-1,-1],"split_conditions":[5.465E1,1.19E1,1.5629026E-3,-6.689355E-2,2.35E0,-6.695811E-2,-5.0706424E-2,5.057622E-2,-5.7138294E-2],"split_indices":[68,71,0,25,21,2147483647,2147483647,0,0],"split_type":[0,0,0,0,0,0,0,0,0],"sum_hessian":[6.0434893E3,6.042181E3,1.3084035E0,6.02903E3,1.31513405E1,6.0019575E3,2.7072481E1,1.2350013E0,1.1916339E1],"tree_param":{"num_deleted":"2","num_feature":"105","num_nodes":"9","size_leaf_vector":"0"}},{"base_weights":[2.8547052E-1,2.524342E-1,3.464035E-1,2.7889058E-1,1.4350201E-1,5.7762855E-1,3.118605E-1,-1.8749627E-1,2.845834E-1,1.7038272E-1,-3.9495623E-1,2.2282444E-1,6.2611276E-1,3.6338803E-1,2.4567246E-1],"categories":[],"categories_nodes":[],"categories_segments":[],"categories_sizes":[],"default_left":[true,true,true,true,true,true,true,false,false,false,false,false,false,false,false],"id":9,"left_children":[1,3,5,7,9,11,13,-1,-1,-1,-1,-1,-1,-1,-1],"loss_changes":[1.3677368E1,1.2749115E1,1.8999573E1,9.5303955E0,1.2648602E1,5.209305E0,7.04335E0,0E0,0E0,0E0,0E0,0E0,0E0,0E0,0E0],"parents":[2147483647,0,0,1,1,2,2,3,3,4,4,5,5,6,6],"right_children":[2,4,6,8,10,12,14,-1,-1,-1,-1,-1,-1,-1,-1],"split_conditions":[1.95E1,4.855E1,1.15E1,7.55E0,4.915E1,4.5E0,2.15E1,-1.8749628E-2,2.845834E-2,1.7038273E-2,-3.9495625E-2,2.2282444E-2,6.2611274E-2,3.6338802E-2,2.4567246E-2],"split_indices":[50,56,0,14,4,83,41,0,0,0,0,0,0,0,0],"split_type":[0,0,0,0,0,0,0,0,0,0,0,0,0,0,0],"sum_hessian":[6.836967E3,4.4366616E3,2.400305E3,3.5684348E3,8.682268E2,3.0993442E2,2.0903706E3,4.2646667E1,3.525788E3,8.275955E2,4.0631325E1,3.7933754E1,2.7200067E2,1.1728297E3,9.1754095E2],"tree_param":{"num_deleted":"0","num_feature":"105","num_nodes":"15","size_leaf_vector":"0"}},{"base_weights":[2.643134E-1,-4.6771914E-2,2.7083012E-1,-2.1110398E-1,1.7326935E-1,2.620869E-1,4.8000348E-1,-4.5170468E-1,2.8833184E-2,3.7633598E-1,-1.7630818E-1,2.2275732E-1,3.0988964E-1,5.85064E-1,2.952311E-1],"categories":[],"categories_nodes":[],"categories_segments":[],"categories_sizes":[],"default_left":[true,true,true,true,true,true,true,false,false,false,false,false,false,false,false],"id":10,"left_children":[1,3,5,7,9,11,13,-1,-1,-1,-1,-1,-1,-1,-1],"loss_changes":[1.3829712E1,5.1242485E0,1.2083466E1,4.6888857E0,4.375494E0,1.1982666E1,5.003517E0,0E0,0E0,0E0,0E0,0E0,0E0,0E0,0E0],"parents":[2147483647,0,0,1,1,2,2,3,3,4,4,5,5,6,6],"right_children":[2,4,6,8,10,12,14,-1,-1,-1,-1,-1,-1,-1,-1],"split_conditions":[3.355E1,1.55E1,2.225E1,2.045E1,2.0150002E1,4.835E1,5.6949997E-1,-4.5170467E-2,2.8833186E-3,3.7633598E-2,-1.763082E-2,2.2275733E-2,3.0988965E-2,5.85064E-2,2.952311E-2],"split_indices":[5,52,11,69,61,56,55,0,0,0,0,0,0,0,0],"split_type":[0,0,0,0,0,0,0,0,0,0,0,0,0,0,0],"sum_hessian":[6.8146206E3,1.3969951E2,6.6749214E3,7.999669E1,5.9702816E1,6.409273E3,2.6564804E2,3.9502422E1,4.0494267E1,3.771686E1,2.1985952E1,3.5193774E3,2.8898958E3,1.679731E2,9.767495E1],"tree_param":{"num_deleted":"0","num_feature":"105","num_nodes":"15","size_leaf_vector":"0"}},{"base_weights":[-6.48168E-1,-6.4832246E-1,2.4080005E-2,-6.4899224E-1,-4.837841E-1,-6.494273E-1,-4.127761E-1,-5.739043E-1,6.275569E-2],"categories":[],"categories_nodes":[],"categories_segments":[],"categories_sizes":[],"default_left":[true,true,false,true,true,true,true,false,false],"id":11,"left_children":[1,3,-1,-1,7,-1,-1,-1,-1],"loss_changes":[6.166992E-1,3.239746E-1,0E0,3.244629E-1,1.3855281E0,0E0,0E0,0E0,0E0],"parents":[2147483647,0,0,1,1,3,3,4,4],"right_children":[2,4,-1,-1,8,-1,-1,-1,-1],"split_conditions":[5.465E1,1.455E1,2.4080004E-3,-6.489923E-2,1.45E1,-6.494273E-2,-4.1277613E-2,-5.739043E-2,6.275569E-3],"split_indices":[68,25,0,71,34,2147483647,2147483647,0,0],"split_type":[0,0,0,0,0,0,0,0,0],"sum_hessian":[5.789933E3,5.7886387E3,1.2944467E0,5.7622397E3,2.6398893E1,5.7499E3,1.2339996E1,2.2619108E1,3.779784E0],"tree_param":{"num_deleted":"2","num_feature":"105","num_nodes":"9","size_leaf_vector":"0"}},{"base_weights":[2.6277068E-1,4.407459E-1,2.5217405E-1,9.2661476E-1,3.9125323E-1,2.2167183E-1,3.08301E-1,1.018518E0,4.5669064E-2,6.3392156E-1,3.113484E-1,1.714712E-1,2.8646806E-1,4.6585047E-1,2.697236E-1],"categories":[],"categories_nodes":[],"categories_segments":[],"categories_sizes":[],"default_left":[true,true,true,true,true,true,true,false,false,false,false,false,false,false,false],"id":12,"left_children":[1,3,5,7,9,11,13,-1,-1,-1,-1,-1,-1,-1,-1],"loss_changes":[1.2914886E1,8.938614E0,1.1095825E1,2.7893333E0,6.642868E0,1.3705734E1,1.3814163E1,0E0,0E0,0E0,0E0,0E0,0E0,0E0,0E0],"parents":[2147483647,0,0,1,1,2,2,3,3,4,4,5,5,6,6],"right_children":[2,4,6,8,10,12,14,-1,-1,-1,-1,-1,-1,-1,-1],"split_conditions":[9.255E1,2.5E0,1.95E1,2.65E1,1.515E1,2.65E1,4.805E1,1.018518E-1,4.5669065E-3,6.3392155E-2,3.1134842E-2,1.714712E-2,2.8646806E-2,4.658505E-2,2.6972359E-2],"split_indices":[76,54,50,41,63,1,4,0,0,0,0,0,0,0,0],"split_type":[0,0,0,0,0,0,0,0,0,0,0,0,0,0,0],"sum_hessian":[6.9059385E3,3.857915E2,6.520147E3,3.4026962E1,3.5176453E2,4.2276025E3,2.292544E3,3.0671085E1,3.3558753E0,8.541835E1,2.663462E2,2.3841428E3,1.8434598E3,4.4875604E2,1.843788E3],"tree_param":{"num_deleted":"0","num_feature":"105","num_nodes":"15","size_leaf_vector":"0"}},{"base_weights":[2.4374391E-1,-4.531604E-2,2.4972741E-1,-2.9282144E-1,9.3929075E-2,2.4159345E-1,4.434128E-1,-3.368854E-1,5.8366144E-1,8.711117E-1,1.5078688E-2,2.0541407E-1,2.8545108E-1,3.952849E-1,8.440877E-1],"categories":[],"categories_nodes":[],"categories_segments":[],"categories_sizes":[],"default_left":[true,true,true,true,true,true,true,false,false,false,false,false,false,false,false],"id":13,"left_children":[1,3,5,7,9,11,13,-1,-1,-1,-1,-1,-1,-1,-1],"loss_changes":[1.1910858E1,4.8652887E0,1.0512207E1,2.1579075E0,5.5383296E0,1.020932E1,4.8819923E0,0E0,0E0,0E0,0E0,0E0,0E0,0E0,0E0],"parents":[2147483647,0,0,1,1,2,2,3,3,4,4,5,5,6,6],"right_children":[2,4,6,8,10,12,14,-1,-1,-1,-1,-1,-1,-1,-1],"split_conditions":[3.355E1,9.5E0,2.225E1,2.95E1,3.85E0,4.835E1,2.75E1,-3.368854E-2,5.8366146E-2,8.711117E-2,1.5078689E-3,2.0541407E-2,2.854511E-2,3.952849E-2,8.4408775E-2],"split_indices":[5,46,11,34,72,56,99,0,0,0,0,0,0,0,0],"split_type":[0,0,0,0,0,0,0,0,0,0,0,0,0,0,0],"sum_hessian":[6.8789604E3,1.3937244E2,6.7395884E3,4.9782364E1,8.959007E1,6.470118E3,2.6947012E2,4.7985596E1,1.7967689E0,7.326763E0,8.226331E1,3.548525E3,2.9215933E3,2.4234666E2,2.712344E1],"tree_param":{"num_deleted":"0","num_feature":"105","num_nodes":"15","size_leaf_vector":"0"}},{"base_weights":[-6.30326E-1,-6.304847E-1,3.0541774E-2,-6.311699E-1,-4.6417722E-1,-6.316252E-1,-3.866936E-1,-5.551781E-1,6.826938E-2],"categories":[],"categories_nodes":[],"categories_segments":[],"categories_sizes":[],"default_left":[true,true,false,true,true,true,true,false,false],"id":14,"left_children":[1,3,-1,-1,7,-1,-1,-1,-1],"loss_changes":[6.003418E-1,3.3813477E-1,0E0,3.6938477E-1,1.3221965E0,0E0,0E0,0E0,0E0],"parents":[2147483647,0,0,1,1,3,3,4,4],"right_children":[2,4,-1,-1,8,-1,-1,-1,-1],"split_conditions":[5.465E1,1.455E1,3.0541774E-3,-6.311699E-2,1.45E1,-6.316252E-2,-3.866936E-2,-5.551781E-2,6.826938E-3],"split_indices":[68,25,0,71,34,2147483647,2147483647,0,0],"split_type":[0,0,0,0,0,0,0,0,0],"sum_hessian":[5.538815E3,5.5375312E3,1.2835772E0,5.5120254E3,2.5505943E1,5.5001987E3,1.1826493E1,2.1746534E1,3.759409E0],"tree_param":{"num_deleted":"2","num_feature":"105","num_nodes":"9","size_leaf_vector":"0"}},{"base_weights":[2.4253502E-1,4.0827873E-1,2.326333E-1,8.5807616E-1,3.6220428E-1,2.3729515E-1,-9.248491E-2,9.236237E-1,-1.9692722E-1,5.763095E-1,2.8347003E-1,2.0485473E-1,2.806029E-1,4.652057E-1,-2.1364836E-1],"categories":[],"categories_nodes":[],"categories_segments":[],"categories_sizes":[],"default_left":[true,true,true,true,true,true,true,false,false,false,false,false,false,false,false],"id":15,"left_children":[1,3,5,7,9,11,13,-1,-1,-1,-1,-1,-1,-1,-1],"loss_changes":[1.1336426E1,7.7994766E0,9.987579E0,2.645918E0,5.8498764E0,9.049896E0,6.428658E0,0E0,0E0,0E0,0E0,0E0,0E0,0E0,0E0],"parents":[2147483647,0,0,1,1,2,2,3,3,4,4,5,5,6,6],"right_children":[2,4,6,8,10,12,14,-1,-1,-1,-1,-1,-1,-1,-1],"split_conditions":[9.255E1,2.5E0,2.4849998E1,1.65E1,1.525E1,1.75E1,4.5E0,9.236237E-2,-1.9692723E-2,5.7630952E-2,2.8347004E-2,2.0485474E-2,2.8060291E-2,4.6520572E-2,-2.1364836E-2],"split_indices":[76,54,74,25,63,31,42,0,0,0,0,0,0,0,0],"split_type":[0,0,0,0,0,0,0,0,0,0,0,0,0,0,0],"sum_hessian":[6.964485E3,3.903438E2,6.574141E3,3.463167E1,3.5571213E2,6.4814736E3,9.2667404E1,3.2723106E1,1.9085625E0,9.393936E1,2.6177277E2,3.708951E3,2.7725227E3,1.6032696E1,7.663471E1],"tree_param":{"num_deleted":"0","num_feature":"105","num_nodes":"15","size_leaf_vector":"0"}},{"base_weights":[2.2540846E-1,1.559495E-1,2.4771051E-1,2.247496E-1,5.1615156E-2,2.94187E-1,2.0865287E-1,1.958903E-1,4.3973875E-1,-6.541538E-2,1.5512823E-1,4.8469675E-1,2.684535E-1,3.0154878E-1,1.710922E-1],"categories":[],"categories_nodes":[],"categories_segments":[],"categories_sizes":[],"default_left":[true,true,true,true,true,true,true,false,false,false,false,false,false,false,false],"id":16,"left_children":[1,3,5,7,9,11,13,-1,-1,-1,-1,-1,-1,-1,-1],"loss_changes":[1.07039795E1,1.2106506E1,9.464508E0,6.2239723E0,8.152653E0,1.160553E1,9.90966E0,0E0,0E0,0E0,0E0,0E0,0E0,0E0,0E0],"parents":[2147483647,0,0,1,1,2,2,3,3,4,4,5,5,6,6],"right_children":[2,4,6,8,10,12,14,-1,-1,-1,-1,-1,-1,-1,-1],"split_conditions":[3.635E1,3.105E1,1.35E1,3.65E1,4.825E1,6.5E0,1.9675E2,1.9589031E-2,4.3973874E-2,-6.5415385E-3,1.5512823E-2,4.8469674E-2,2.684535E-2,3.0154878E-2,1.710922E-2],"split_indices":[5,15,102,54,4,53,104,0,0,0,0,0,0,0,0],"split_type":[0,0,0,0,0,0,0,0,0,0,0,0,0,0,0],"sum_hessian":[6.933848E3,1.687179E3,5.246669E3,1.01603296E3,6.71146E2,2.3928152E3,2.8538538E3,8.974712E2,1.18561745E2,3.1517795E2,3.5596805E2,2.8262888E2,2.1101865E3,8.196496E2,2.0342041E3],"tree_param":{"num_deleted":"0","num_feature":"105","num_nodes":"15","size_leaf_vector":"0"}},{"base_weights":[-6.1441E-1,-6.1457324E-1,3.549022E-2,-6.150436E-1,-3.703678E-1,-6.157592E-1,-4.4140244E-1,5.754452E-1,-5.1370454E-1],"categories":[],"categories_nodes":[],"categories_segments":[],"categories_sizes":[],"default_left":[true,true,false,true,true,true,true,false,false],"id":17,"left_children":[1,3,-1,-1,7,-1,-1,-1,-1],"loss_changes":[5.834961E-1,3.8000488E-1,0E0,3.8427734E-1,2.0155568E0,0E0,0E0,0E0,0E0],"parents":[2147483647,0,0,1,1,3,3,4,4],"right_children":[2,4,-1,-1,8,-1,-1,-1,-1],"split_conditions":[5.465E1,1.19E1,3.549022E-3,-6.150436E-2,2.6E0,-6.157592E-2,-4.4140246E-2,5.754452E-2,-5.1370453E-2],"split_indices":[68,71,0,25,72,2147483647,2147483647,0,0],"split_type":[0,0,0,0,0,0,0,0,0],"sum_hessian":[5.292774E3,5.291499E3,1.275135E0,5.279812E3,1.1686808E1,5.255607E3,2.4204906E1,1.1412948E0,1.0545513E1],"tree_param":{"num_deleted":"2","num_feature":"105","num_nodes":"9","size_leaf_vector":"0"}},{"base_weights":[2.2436297E-1,3.7936822E-1,2.1508296E-1,7.991519E-1,3.3631247E-1,2.5501168E-1,1.7876077E-1,8.831647E-1,-3.8325568E-4,3.0481157E-1,8.3675337E-1,1.989709E-1,3.0080342E-1,1.9353709E-1,-4.7407504E-3],"categories":[],"categories_nodes":[],"categories_segments":[],"categories_sizes":[],"default_left":[true,true,true,true,true,true,true,false,false,false,false,false,false,false,false],"id":18,"left_children":[1,3,5,7,9,11,13,-1,-1,-1,-1,-1,-1,-1,-1],"loss_changes":[1.000946E1,6.8698044E0,9.55722E0,2.4194908E0,5.4192696E0,8.028061E0,9.411285E0,0E0,0E0,0E0,0E0,0E0,0E0,0E0,0E0],"parents":[2147483647,0,0,1,1,2,2,3,3,4,4,5,5,6,6],"right_children":[2,4,6,8,10,12,14,-1,-1,-1,-1,-1,-1,-1,-1],"split_conditions":[9.255E1,2.5E0,1.25E1,2.65E1,9.65E0,9.5E0,2.125E1,8.831647E-2,-3.832557E-5,3.0481158E-2,8.367534E-2,1.989709E-2,3.0080343E-2,1.9353708E-2,-4.7407506E-4],"split_indices":[76,54,80,41,19,95,11,0,0,0,0,0,0,0,0],"split_type":[0,0,0,0,0,0,0,0,0,0,0,0,0,0,0],"sum_hessian":[7.014236E3,3.9396136E2,6.6202744E3,3.5014736E1,3.5894662E2,3.150706E3,3.4695684E3,3.1590683E1,3.4240532E0,3.3920407E2,1.9742556E1,1.419204E3,1.7315021E3,3.210954E3,2.586142E2],"tree_param":{"num_deleted":"0","num_feature":"105","num_nodes":"15","size_leaf_vector":"0"}},{"base_weights":[2.089629E-1,-9.145994E-2,2.1356161E-1,3.5440737E-1,-2.6790497E-1,1.714698E-1,2.4496622E-1,6.7390347E-1,-4.1764307E-1,-4.8825645E-1,-2.6957763E-2,1.4931987E-1,3.139651E-1,3.152869E-1,2.093531E-1],"categories":[],"categories_nodes":[],"categories_segments":[],"categories_sizes":[],"default_left":[true,true,true,true,true,true,true,false,false,false,false,false,false,false,false],"id":19,"left_children":[1,3,5,7,9,11,13,-1,-1,-1,-1,-1,-1,-1,-1],"loss_changes":[9.665161E0,8.431025E0,9.048248E0,7.7983346E0,4.0477867E0,9.238014E0,9.791153E0,0E0,0E0,0E0,0E0,0E0,0E0,0E0,0E0],"parents":[2147483647,0,0,1,1,2,2,3,3,4,4,5,5,6,6],"right_children":[2,4,6,8,10,12,14,-1,-1,-1,-1,-1,-1,-1,-1],"split_conditions":[4.105E-1,8.5E0,1.15E1,1.6349998E1,1.45E1,2.2650002E1,1.45E1,6.7390345E-2,-4.1764308E-2,-4.8825648E-2,-2.6957763E-3,1.4931987E-2,3.1396512E-2,3.1528693E-2,2.093531E-2],"split_indices":[59,50,80,70,29,22,102,0,0,0,0,0,0,0,0],"split_type":[0,0,0,0,0,0,0,0,0,0,0,0,0,0,0],"sum_hessian":[6.98073E3,1.0496115E2,6.875769E3,2.9473803E1,7.548735E1,2.9407388E3,3.93503E3,2.0936726E1,8.537077E0,3.8892708E1,3.659464E1,2.54689E3,3.9384885E2,1.3202496E3,2.6147805E3],"tree_param":{"num_deleted":"0","num_feature":"105","num_nodes":"15","size_leaf_vector":"0"}},{"base_weights":[-6.0005164E-1,-6.002194E-1,3.717368E-2,-6.009681E-1,-4.2220053E-1,-6.0146123E-1,-3.4307462E-1,-5.6143266E-1,-4.466942E-3],"categories":[],"categories_nodes":[],"categories_segments":[],"categories_sizes":[],"default_left":[true,true,false,true,true,false,false,false,false],"id":20,"left_children":[1,3,-1,5,7,-1,-1,-1,-1],"loss_changes":[5.6274414E-1,4.1967773E-1,0E0,4.333496E-1,1.4238982E0,0E0,0E0,0E0,0E0],"parents":[2147483647,0,0,1,1,3,3,4,4],"right_children":[2,4,-1,6,8,-1,-1,-1,-1],"split_conditions":[5.465E1,1.455E1,3.7173682E-3,1.19E1,9.5E0,-6.0146123E-2,-3.430746E-2,-5.6143265E-2,-4.466942E-4],"split_indices":[68,25,0,71,52,0,0,0,0],"split_type":[0,0,0,0,0,0,0,0,0],"sum_hessian":[5.0533677E3,5.0520957E3,1.2722088E0,5.028571E3,2.3524729E1,5.017644E3,1.0926748E1,1.7385937E1,6.1387925E0],"tree_param":{"num_deleted":"0","num_feature":"105","num_nodes":"9","size_leaf_vector":"0"}},{"base_weights":[2.0799768E-1,4.5345247E-1,2.0252617E-1,2.145326E-1,5.590259E-1,2.09647E-1,2.5644245E-2,-2.8850713E-1,3.9099792E-1,1.3887146E-2,6.1715734E-1,1.436639E-1,2.2806337E-1,7.4216E-2,-4.019573E-1],"categories":[],"categories_nodes":[],"categories_segments":[],"categories_sizes":[],"default_left":[true,true,true,true,true,true,true,false,false,false,false,false,false,false,false],"id":21,"left_children":[1,3,5,7,9,11,13,-1,-1,-1,-1,-1,-1,-1,-1],"loss_changes":[9.387054E0,3.7416286E0,8.692871E0,4.421623E0,3.3363838E0,8.034058E0,5.60418E0,0E0,0E0,0E0,0E0,0E0,0E0,0E0,0E0],"parents":[2147483647,0,0,1,1,2,2,3,3,4,4,5,5,6,6],"right_children":[2,4,6,8,10,12,14,-1,-1,-1,-1,-1,-1,-1,-1],"split_conditions":[3.355E1,2.055E1,2.225E1,1.25E1,2.05E1,1.9325E2,2.75E1,-2.8850714E-2,3.9099794E-2,1.3887145E-3,6.1715733E-2,1.436639E-2,2.2806337E-2,7.4216E-3,-4.019573E-2],"split_indices":[5,22,11,36,50,104,99,0,0,0,0,0,0,0,0],"split_type":[0,0,0,0,0,0,0,0,0,0,0,0,0,0,0],"sum_hessian":[7.056937E3,1.5209303E2,6.904844E3,4.7539635E1,1.0455339E2,6.637451E3,2.673929E2,1.2181005E1,3.535863E1,1.0194205E1,9.4359184E1,1.4502445E3,5.1872065E3,2.4085982E2,2.6533108E1],"tree_param":{"num_deleted":"0","num_feature":"105","num_nodes":"15","size_leaf_vector":"0"}},{"base_weights":[1.941098E-1,-6.004224E-2,1.9930254E-1,-2.9374117E-1,6.971832E-2,1.9199325E-1,3.730423E-1,5.615577E-1,-3.3692372E-1,7.866257E-1,-4.12846E-3,1.5914634E-1,2.3176345E-1,7.0885286E-2,4.2597044E-1],"categories":[],"categories_nodes":[],"categories_segments":[],"categories_sizes":[],"default_left":[true,true,true,true,true,true,true,false,false,false,false,false,false,false,false],"id":22,"left_children":[1,3,5,7,9,11,13,-1,-1,-1,-1,-1,-1,-1,-1],"loss_changes":[9.279785E0,4.3076663E0,8.667999E0,2.0604582E0,4.858507E0,8.593094E0,4.3962517E0,0E0,0E0,0E0,0E0,0E0,0E0,0E0,0E0],"parents":[2147483647,0,0,1,1,2,2,3,3,4,4,5,5,6,6],"right_children":[2,4,6,8,10,12,14,-1,-1,-1,-1,-1,-1,-1,-1],"split_conditions":[3.355E1,9.5E0,2.225E1,1.95E1,3.85E0,4.835E1,5.5E0,5.615577E-2,-3.369237E-2,7.866257E-2,-4.1284598E-4,1.5914634E-2,2.3176346E-2,7.0885285E-3,4.2597044E-2],"split_indices":[5,46,11,50,72,56,98,0,0,0,0,0,0,0,0],"split_type":[0,0,0,0,0,0,0,0,0,0,0,0,0,0,0],"sum_hessian":[7.0214336E3,1.4037512E2,6.8810586E3,4.9664886E1,9.071024E1,6.605278E3,2.757808E2,1.8100334E0,4.785485E1,7.5698376E0,8.31404E1,3.620251E3,2.9850269E3,4.1455902E1,2.3432489E2],"tree_param":{"num_deleted":"0","num_feature":"105","num_nodes":"15","size_leaf_vector":"0"}},{"base_weights":[-5.870192E-1,-5.871931E-1,4.314078E-2,-5.8797157E-1,-4.0454775E-1,-5.884822E-1,-3.258933E-1,-5.46416E-1,7.3100496E-3],"categories":[],"categories_nodes":[],"categories_segments":[],"categories_sizes":[],"default_left":[true,true,false,true,true,false,false,false,false],"id":23,"left_children":[1,3,-1,5,7,-1,-1,-1,-1],"loss_changes":[5.5371094E-1,4.477539E-1,0E0,4.5031738E-1,1.3870137E0,0E0,0E0,0E0,0E0],"parents":[2147483647,0,0,1,1,3,3,4,4],"right_children":[2,4,-1,6,8,-1,-1,-1,-1],"split_conditions":[5.465E1,1.455E1,4.314078E-3,1.19E1,9.5E0,-5.884822E-2,-3.258933E-2,-5.46416E-2,7.31005E-4],"split_indices":[68,25,0,71,52,0,0,0,0],"split_type":[0,0,0,0,0,0,0,0,0],"sum_hessian":[4.821939E3,4.820677E3,1.2618856E0,4.7980073E3,2.2669867E1,4.7874336E3,1.0573358E1,1.6618692E1,6.0511737E0],"tree_param":{"num_deleted":"0","num_feature":"105","num_nodes":"9","size_leaf_vector":"0"}},{"base_weights":[1.931586E-1,1.5253489E-1,2.2563767E-1,-2.5046313E-1,1.6013835E-1,3.3028093E-1,2.0075256E-1,1.0575936E-1,-4.4018328E-1,1.4702721E-1,3.7045512E-1,3.781379E-1,6.2691316E-2,1.759601E-1,2.7744696E-1],"categories":[],"categories_nodes":[],"categories_segments":[],"categories_sizes":[],"default_left":[true,true,true,true,true,true,true,false,false,false,false,false,false,false,false],"id":24,"left_children":[1,3,5,7,9,11,13,-1,-1,-1,-1,-1,-1,-1,-1],"loss_changes":[9.326019E0,9.707802E0,1.0194473E1,4.021431E0,8.486183E0,9.650803E0,6.0088654E0,0E0,0E0,0E0,0E0,0E0,0E0,0E0,0E0],"parents":[2147483647,0,0,1,1,2,2,3,3,4,4,5,5,6,6],"right_children":[2,4,6,8,10,12,14,-1,-1,-1,-1,-1,-1,-1,-1],"split_conditions":[1.35E1,1.5E0,4.805E1,1.15E1,2.85E1,1.45E1,2.25E1,1.0575936E-2,-4.401833E-2,1.47027215E-2,3.7045512E-2,3.781379E-2,6.269132E-3,1.759601E-2,2.7744696E-2],"split_indices":[102,53,56,96,31,2,92,0,0,0,0,0,0,0,0],"split_type":[0,0,0,0,0,0,0,0,0,0,0,0,0,0,0],"sum_hessian":[7.093369E3,3.154067E3,3.9393022E3,5.781512E1,3.096252E3,7.544652E2,3.1848372E3,2.0245083E1,3.7570038E1,2.9161577E3,1.8009409E2,6.3965344E2,1.14811745E2,2.4092957E3,7.7554156E2],"tree_param":{"num_deleted":"0","num_feature":"105","num_nodes":"15","size_leaf_vector":"0"}},{"base_weights":[1.8068029E-1,2.2028802E-1,1.4848562E-1,2.3329253E-1,-6.9722865E-4,3.380869E-2,1.7503473E-1,2.251371E-1,6.2396413E-1,-3.3789718E-1,1.1655447E-1,-1.4407341E-2,2.9582217E-1,2.167179E-1,1.2873368E-1],"categories":[],"categories_nodes":[],"categories_segments":[],"categories_sizes":[],"default_left":[true,true,true,true,true,true,true,false,false,false,false,false,false,false,false],"id":25,"left_children":[1,3,5,7,9,11,13,-1,-1,-1,-1,-1,-1,-1,-1],"loss_changes":[8.966217E0,9.087677E0,1.1855476E1,9.374634E0,7.027313E0,9.272441E0,6.077156E0,0E0,0E0,0E0,0E0,0E0,0E0,0E0,0E0],"parents":[2147483647,0,0,1,1,2,2,3,3,4,4,5,5,6,6],"right_children":[2,4,6,8,10,12,14,-1,-1,-1,-1,-1,-1,-1,-1],"split_conditions":[1.35E1,2.85E1,4.805E1,2.4849998E1,4.5E0,1.45E1,4.285E1,2.251371E-2,6.2396415E-2,-3.378972E-2,1.1655447E-2,-1.4407341E-3,2.9582217E-2,2.167179E-2,1.2873368E-2],"split_indices":[102,31,56,74,87,2,16,0,0,0,0,0,0,0,0],"split_type":[0,0,0,0,0,0,0,0,0,0,0,0,0,0,0],"sum_hessian":[7.0561064E3,3.1611892E3,3.8949172E3,2.9854463E3,1.7574286E2,7.3263367E2,3.1622837E3,2.9259424E3,5.9504017E1,4.4857365E1,1.308855E2,6.1956555E2,1.1306816E2,1.6621918E3,1.5000918E3],"tree_param":{"num_deleted":"0","num_feature":"105","num_nodes":"15","size_leaf_vector":"0"}},{"base_weights":[-5.750832E-1,-5.752634E-1,4.780521E-2,-5.7606995E-1,-3.8900727E-1,-5.765985E-1,-3.1046015E-1,-4.936727E-1,1.6209789E-1],"categories":[],"categories_nodes":[],"categories_segments":[],"categories_sizes":[],"default_left":[true,true,false,true,true,false,false,false,false],"id":26,"left_children":[1,3,-1,5,7,-1,-1,-1,-1],"loss_changes":[5.4382324E-1,4.6679688E-1,0E0,4.6350098E-1,1.4014018E0,0E0,0E0,0E0,0E0],"parents":[2147483647,0,0,1,1,3,3,4,4],"right_children":[2,4,-1,6,8,-1,-1,-1,-1],"split_conditions":[5.465E1,1.455E1,4.780521E-3,1.19E1,1.45E1,-5.7659853E-2,-3.1046016E-2,-4.936727E-2,1.6209789E-2],"split_indices":[68,25,0,71,34,0,0,0,0],"split_type":[0,0,0,0,0,0,0,0,0],"sum_hessian":[4.5990625E3,4.5978086E3,1.2537315E0,4.5759004E3,2.1908125E1,4.5656436E3,1.0256867E1,1.849902E1,3.4091053E0],"tree_param":{"num_deleted":"0","num_feature":"105","num_nodes":"9","size_leaf_vector":"0"}},{"base_weights":[1.796772E-1,2.3957546E-1,1.599382E-1,3.2240155E-1,1.7451E-1,1.2302825E-1,2.012805E-1,2.6662463E-1,5.6572086E-1,1.9443299E-1,-1.25516E-1,3.121203E-2,1.5483354E-1,1.0693039E-1,2.3701738E-1],"categories":[],"categories_nodes":[],"categories_segments":[],"categories_sizes":[],"default_left":[true,true,true,true,true,true,true,false,false,false,false,false,false,false,false],"id":27,"left_children":[1,3,5,7,9,11,13,-1,-1,-1,-1,-1,-1,-1,-1],"loss_changes":[8.385757E0,9.450111E0,8.157303E0,1.0365753E1,5.9426327E0,8.275257E0,8.497009E0,0E0,0E0,0E0,0E0,0E0,0E0,0E0,0E0],"parents":[2147483647,0,0,1,1,2,2,3,3,4,4,5,5,6,6],"right_children":[2,4,6,8,10,12,14,-1,-1,-1,-1,-1,-1,-1,-1],"split_conditions":[3.635E1,4.825E1,1.65E1,2.0325E2,2.85E1,2.0225E2,1.9625E2,2.6662463E-2,5.6572087E-2,1.94433E-2,-1.25516E-2,3.121203E-3,1.5483354E-2,1.0693039E-2,2.3701739E-2],"split_indices":[5,4,84,104,88,104,104,0,0,0,0,0,0,0,0],"split_type":[0,0,0,0,0,0,0,0,0,0,0,0,0,0,0],"sum_hessian":[7.123965E3,1.7629951E3,5.3609697E3,7.7389655E2,9.890986E2,2.8344136E3,2.5265564E3,6.312815E2,1.4261504E2,9.278382E2,6.1260406E1,7.2974646E2,2.104667E3,6.9518005E2,1.8313762E3],"tree_param":{"num_deleted":"0","num_feature":"105","num_nodes":"15","size_leaf_vector":"0"}},{"base_weights":[1.6846019E-1,1.08897895E-1,1.8753444E-1,1.7128214E-1,1.3849786E-2,1.7931339E-1,3.7307099E-1,2.7149004E-1,1.13161124E-1,-9.205971E-2,1.06960304E-1,1.4504531E-1,2.215046E-1,5.6864417E-1,2.58325E-1],"categories":[],"categories_nodes":[],"categories_segments":[],"categories_sizes":[],"default_left":[true,true,true,true,true,true,true,false,false,false,false,false,false,false,false],"id":28,"left_children":[1,3,5,7,9,11,13,-1,-1,-1,-1,-1,-1,-1,-1],"loss_changes":[8.030945E0,1.0204533E1,8.118546E0,6.02162E0,6.7470922E0,7.400299E0,4.9420967E0,0E0,0E0,0E0,0E0,0E0,0E0,0E0,0E0],"parents":[2147483647,0,0,1,1,2,2,3,3,4,4,5,5,6,6],"right_children":[2,4,6,8,10,12,14,-1,-1,-1,-1,-1,-1,-1,-1],"split_conditions":[3.635E1,3.105E1,4.025E-1,1.9025E2,4.825E1,4.835E1,1.45E1,2.7149005E-2,1.1316112E-2,-9.205971E-3,1.069603E-2,1.4504531E-2,2.215046E-2,5.6864418E-2,2.5832502E-2],"split_indices":[5,15,10,104,4,56,49,0,0,0,0,0,0,0,0],"split_type":[0,0,0,0,0,0,0,0,0,0,0,0,0,0,0],"sum_hessian":[7.0858105E3,1.7203756E3,5.3654346E3,1.0381743E3,6.8220135E2,5.139665E3,2.2576974E2,3.7975607E2,6.584182E2,3.1916977E2,3.630316E2,2.8385808E3,2.301084E3,8.201965E1,1.4375009E2],"tree_param":{"num_deleted":"0","num_feature":"105","num_nodes":"15","size_leaf_vector":"0"}},{"base_weights":[-5.640623E-1,-5.642503E-1,5.6016624E-2,-5.6508666E-1,-3.7411016E-1,-5.1712865E-1,-5.689319E-1,-5.151416E-2,-5.799458E-1],"categories":[],"categories_nodes":[],"categories_segments":[],"categories_sizes":[],"default_left":[true,true,false,true,true,false,false,false,false],"id":29,"left_children":[1,3,-1,5,7,-1,-1,-1,-1],"loss_changes":[5.430908E-1,4.8583984E-1,0E0,5.106201E-1,1.4417307E0,0E0,0E0,0E0,0E0],"parents":[2147483647,0,0,1,1,3,3,4,4],"right_children":[2,4,-1,6,8,-1,-1,-1,-1],"split_conditions":[5.465E1,1.455E1,5.6016627E-3,1.275E1,2.13E1,-5.1712867E-2,-5.689319E-2,-5.151416E-3,-5.799458E-2],"split_indices":[68,25,0,70,74,0,0,0,0],"split_type":[0,0,0,0,0,0,0,0,0],"sum_hessian":[4.38511E3,4.3838706E3,1.2392113E0,4.3627085E3,2.1162157E1,3.3388715E2,4.0288213E3,8.730129E0,1.2432028E1],"tree_param":{"num_deleted":"0","num_feature":"105","num_nodes":"9","size_leaf_vector":"0"}},{"base_weights":[1.6738363E-1,2.8950194E-1,1.5797874E-1,7.184414E-1,2.6203576E-1,1.6218957E-1,-1.411961E-1,7.9920393E-1,-5.1366323E-1,1.6590159E-1,3.5956243E-1,9.706244E-2,1.8007E-1,3.6419722E-1,-2.508699E-1],"categories":[],"categories_nodes":[],"categories_segments":[],"categories_sizes":[],"default_left":[true,true,true,true,true,true,true,false,false,false,false,false,false,false,false],"id":30,"left_children":[1,3,5,7,9,11,13,-1,-1,-1,-1,-1,-1,-1,-1],"loss_changes":[8.167511E0,5.8221703E0,8.390396E0,3.4084225E0,4.45039E0,7.6104126E0,5.2308426E0,0E0,0E0,0E0,0E0,0E0,0E0,0E0,0E0],"parents":[2147483647,0,0,1,1,2,2,3,3,4,4,5,5,6,6],"right_children":[2,4,6,8,10,12,14,-1,-1,-1,-1,-1,-1,-1,-1],"split_conditions":[9.3149994E1,3.995E-1,2.4849998E1,1.875E1,1.55E1,1.9425E2,4.5E0,7.9920396E-2,-5.1366325E-2,1.659016E-2,3.5956245E-2,9.706244E-3,1.8007E-2,3.6419723E-2,-2.508699E-2],"split_indices":[76,59,74,25,35,104,42,0,0,0,0,0,0,0,0],"split_type":[0,0,0,0,0,0,0,0,0,0,0,0,0,0,0],"sum_hessian":[7.1502393E3,5.0916534E2,6.641074E3,2.912728E1,4.800381E2,6.549351E3,9.172278E1,2.7665218E1,1.4620608E0,2.4310513E2,2.3693294E2,1.4121624E3,5.137189E3,1.5941453E1,7.578133E1],"tree_param":{"num_deleted":"0","num_feature":"105","num_nodes":"15","size_leaf_vector":"0"}},{"base_weights":[1.5730748E-1,-1.0657442E-1,1.6128673E-1,3.0139259E-1,-2.708142E-1,1.2327062E-1,1.8961509E-1,5.947132E-1,-4.2053124E-1,6.792084E-2,-4.1723755E-1,1.0232887E-1,2.5800818E-1,1.770013E-1,3.3983287E-1],"categories":[],"categories_nodes":[],"categories_segments":[],"categories_sizes":[],"default_left":[true,true,true,true,true,true,true,false,false,false,false,false,false,false,false],"id":31,"left_children":[1,3,5,7,9,11,13,-1,-1,-1,-1,-1,-1,-1,-1],"loss_changes":[7.4857635E0,7.201774E0,7.5230255E0,6.809017E0,3.8122187E0,8.424126E0,7.544525E0,0E0,0E0,0E0,0E0,0E0,0E0,0E0,0E0],"parents":[2147483647,0,0,1,1,2,2,3,3,4,4,5,5,6,6],"right_children":[2,4,6,8,10,12,14,-1,-1,-1,-1,-1,-1,-1,-1],"split_conditions":[4.105E-1,8.5E0,1.15E1,1.6349998E1,4.175E1,2.2650002E1,2.125E1,5.947132E-2,-4.2053126E-2,6.7920843E-3,-4.1723754E-2,1.0232887E-2,2.5800819E-2,1.770013E-2,3.3983286E-2],"split_indices":[59,50,80,70,16,22,11,0,0,0,0,0,0,0,0],"split_type":[0,0,0,0,0,0,0,0,0,0,0,0,0,0,0],"sum_hessian":[7.1115664E3,1.0526394E2,7.0063022E3,2.9974083E1,7.5289856E1,2.9938987E3,4.0124036E3,2.1439383E1,8.5347E0,2.2884682E1,5.2405174E1,2.5926868E3,4.0121207E2,3.7035913E3,3.0881232E2],"tree_param":{"num_deleted":"0","num_feature":"105","num_nodes":"15","size_leaf_vector":"0"}},{"base_weights":[-5.538288E-1,-5.540244E-1,6.1169084E-2,-5.548957E-1,-3.5917854E-1,-5.0550824E-1,-5.5887187E-1,-4.1250855E-2,-5.6897444E-1],"categories":[],"categories_nodes":[],"categories_segments":[],"categories_sizes":[],"default_left":[true,true,false,true,true,false,false,false,false],"id":32,"left_children":[1,3,-1,5,7,-1,-1,-1,-1],"loss_changes":[5.3686523E-1,5.102539E-1,0E0,5.3430176E-1,1.4069321E0,0E0,0E0,0E0,0E0],"parents":[2147483647,0,0,1,1,3,3,4,4],"right_children":[2,4,-1,6,8,-1,-1,-1,-1],"split_conditions":[5.465E1,1.455E1,6.1169085E-3,1.275E1,2.13E1,-5.0550826E-2,-5.588719E-2,-4.1250857E-3,-5.6897443E-2],"split_indices":[68,25,0,70,74,0,0,0,0],"split_type":[0,0,0,0,0,0,0,0,0],"sum_hessian":[4.1805454E3,4.1793154E3,1.2299228E0,4.15887E3,2.0445345E1,3.1943106E2,3.839439E3,8.603739E0,1.1841606E1],"tree_param":{"num_deleted":"0","num_feature":"105","num_nodes":"9","size_leaf_vector":"0"}},{"base_weights":[1.5613407E-1,1.1907379E-1,1.8575671E-1,-1.3420208E-1,1.2943664E-1,3.5147625E-1,1.7376958E-1,3.1829292E-1,-2.730577E-1,1.175858E-1,3.1965753E-1,4.538837E-1,7.607321E-2,2.0820917E-1,1.1245979E-1],"categories":[],"categories_nodes":[],"categories_segments":[],"categories_sizes":[],"default_left":[true,true,true,true,true,true,true,false,false,false,false,false,false,false,false],"id":33,"left_children":[1,3,5,7,9,11,13,-1,-1,-1,-1,-1,-1,-1,-1],"loss_changes":[7.8538055E0,8.389397E0,7.8558655E0,7.9955583E0,6.871521E0,7.5198364E0,7.828171E0,0E0,0E0,0E0,0E0,0E0,0E0,0E0,0E0],"parents":[2147483647,0,0,1,1,2,2,3,3,4,4,5,5,6,6],"right_children":[2,4,6,8,10,12,14,-1,-1,-1,-1,-1,-1,-1,-1],"split_conditions":[1.35E1,2.5E0,3.5E0,2.0150002E1,2.85E1,4.6649998E-1,1.95E1,3.1829294E-2,-2.730577E-2,1.175858E-2,3.1965755E-2,4.538837E-2,7.607321E-3,2.0820918E-2,1.124598E-2],"split_indices":[102,53,54,23,31,7,41,0,0,0,0,0,0,0,0],"split_type":[0,0,0,0,0,0,0,0,0,0,0,0,0,0,0],"sum_hessian":[7.173127E3,3.1887578E3,3.9843691E3,1.2487078E2,3.063887E3,2.668537E2,3.7175156E3,2.9017595E1,9.585319E1,2.8857234E3,1.7816367E2,1.9404926E2,7.280446E1,2.3788477E3,1.3386678E3],"tree_param":{"num_deleted":"0","num_feature":"105","num_nodes":"15","size_leaf_vector":"0"}},{"base_weights":[1.4708658E-1,1.8309408E-1,1.1779724E-1,2.0351803E-1,6.654562E-2,1.7818965E-2,1.4080818E-1,1.8379404E-1,4.0323713E-1,-8.088981E-2,1.4463152E-1,8.806384E-2,-1.3750388E-1,7.664311E-2,1.6744626E-1],"categories":[],"categories_nodes":[],"categories_segments":[],"categories_sizes":[],"default_left":[true,true,true,true,true,true,true,false,false,false,false,false,false,false,false],"id":34,"left_children":[1,3,5,7,9,11,13,-1,-1,-1,-1,-1,-1,-1,-1],"loss_changes":[7.50354E0,7.600731E0,9.05608E0,1.06458435E1,5.5199594E0,8.062412E0,5.45784E0,0E0,0E0,0E0,0E0,0E0,0E0,0E0,0E0],"parents":[2147483647,0,0,1,1,2,2,3,3,4,4,5,5,6,6],"right_children":[2,4,6,8,10,12,14,-1,-1,-1,-1,-1,-1,-1,-1],"split_conditions":[1.35E1,2.55E1,4.805E1,2.305E1,7.5E0,5.5E-1,1.385E1,1.8379403E-2,4.0323716E-2,-8.088982E-3,1.4463152E-2,8.806384E-3,-1.3750388E-2,7.664311E-3,1.6744627E-2],"split_indices":[102,50,56,22,87,77,70,0,0,0,0,0,0,0,0],"split_type":[0,0,0,0,0,0,0,0,0,0,0,0,0,0,0],"sum_hessian":[7.134266E3,3.1977676E3,3.9364988E3,2.7203137E3,4.774537E2,7.368401E2,3.1996587E3,2.4775542E3,2.427596E2,1.6530411E2,3.121496E2,5.0767618E2,2.2916393E2,9.3979156E2,2.259867E3],"tree_param":{"num_deleted":"0","num_feature":"105","num_nodes":"15","size_leaf_vector":"0"}},{"base_weights":[-5.442634E-1,-5.4486406E-1,-2.6168287E-1,-5.457779E-1,-3.4212908E-1,5.7034093E-1,-4.331403E-1,-5.45982E-1,6.0878158E-2,-5.018523E-1,7.565232E-2,1.2970212E-1,-5.3192616E-1],"categories":[],"categories_nodes":[],"categories_segments":[],"categories_sizes":[],"default_left":[true,true,true,true,true,false,true,false,false,false,false,false,false],"id":35,"left_children":[1,3,5,7,9,-1,11,-1,-1,-1,-1,-1,-1],"loss_changes":[5.3393555E-1,5.501709E-1,1.7276616E0,5.2319336E-1,1.4077189E0,0E0,5.7907E-1,0E0,0E0,0E0,0E0,0E0,0E0],"parents":[2147483647,0,0,1,1,2,2,3,3,4,4,6,6],"right_children":[2,4,6,8,10,-1,12,-1,-1,-1,-1,-1,-1],"split_conditions":[1.19E1,1.455E1,1.51E1,5.465E1,9.5E0,5.7034094E-2,1.875E1,-5.45982E-2,6.087816E-3,-5.018523E-2,7.5652325E-3,1.2970212E-2,-5.3192616E-2],"split_indices":[71,25,63,68,52,0,23,0,0,0,0,0,0],"split_type":[0,0,0,0,0,0,0,0,0,0,0,0,0],"sum_hessian":[3.9853557E3,3.9759768E3,9.378933E0,3.9564497E3,1.9526974E1,1.2050092E0,8.1739235E0,3.9552192E3,1.2304366E0,1.3980728E1,5.5462446E0,1.1736978E0,7.0002255E0],"tree_param":{"num_deleted":"0","num_feature":"105","num_nodes":"13","size_leaf_vector":"0"}},{"base_weights":[1.4582205E-1,1.2251465E-1,1.8881378E-1,9.6048474E-2,1.9435984E-1,2.8827542E-1,1.394069E-1,3.4124833E-2,1.4340045E-1,1.821229E-1,7.0040417E-1,2.0576523E-1,4.1539308E-1,3.4519234E-1,1.2044467E-1],"categories":[],"categories_nodes":[],"categories_segments":[],"categories_sizes":[],"default_left":[true,true,true,true,true,true,true,false,false,false,false,false,false,false,false],"id":36,"left_children":[1,3,5,7,9,11,13,-1,-1,-1,-1,-1,-1,-1,-1],"loss_changes":[7.184143E0,8.855423E0,1.237645E1,1.0001442E1,7.6464577E0,8.70018E0,6.55344E0,0E0,0E0,0E0,0E0,0E0,0E0,0E0,0E0],"parents":[2147483647,0,0,1,1,2,2,3,3,4,4,5,5,6,6],"right_children":[2,4,6,8,10,12,14,-1,-1,-1,-1,-1,-1,-1,-1],"split_conditions":[1.95E1,3.55E1,2.75E1,1.35E1,2.65E1,2.0025E2,4.5E0,3.4124833E-3,1.4340045E-2,1.821229E-2,7.004042E-2,2.0576524E-2,4.1539308E-2,3.4519237E-2,1.2044467E-2],"split_indices":[50,1,52,102,36,104,45,0,0,0,0,0,0,0,0],"split_type":[0,0,0,0,0,0,0,0,0,0,0,0,0,0,0],"sum_hessian":[7.1917124E3,4.6659688E3,2.525744E3,3.4115615E3,1.2544071E3,8.366459E2,1.689098E3,1.4790642E3,1.9324974E3,1.2261176E3,2.8289507E1,5.089274E2,3.2771848E2,1.4105971E2,1.5480383E3],"tree_param":{"num_deleted":"0","num_feature":"105","num_nodes":"15","size_leaf_vector":"0"}},{"base_weights":[1.3770004E-1,-4.6369419E-1,1.3926272E-1,-6.564399E-1,4.884104E-1,1.6148858E-1,9.713176E-2,3.8629733E-3,-7.155843E-1,-2.2168407E-2,7.7941084E-1,1.895286E-1,8.506176E-2,-1.5239773E-2,1.4367214E-1],"categories":[],"categories_nodes":[],"categories_segments":[],"categories_sizes":[],"default_left":[true,true,true,true,true,true,true,false,false,false,false,false,false,false,false],"id":37,"left_children":[1,3,5,7,9,11,13,-1,-1,-1,-1,-1,-1,-1,-1],"loss_changes":[6.7878723E0,3.7655644E0,6.6667633E0,6.2911177E-1,5.720475E-1,9.992317E0,1.2904509E1,0E0,0E0,0E0,0E0,0E0,0E0,0E0,0E0],"parents":[2147483647,0,0,1,1,2,2,3,3,4,4,5,5,6,6],"right_children":[2,4,6,8,10,12,14,-1,-1,-1,-1,-1,-1,-1,-1],"split_conditions":[8.505E1,1.42E1,1.95E1,-4.9E0,8.135E1,3.55E1,1.45E1,3.8629732E-4,-7.155843E-2,-2.2168409E-3,7.794108E-2,1.895286E-2,8.506176E-3,-1.5239774E-3,1.4367214E-2],"split_indices":[76,25,50,25,6,1,2,0,0,0,0,0,0,0,0],"split_type":[0,0,0,0,0,0,0,0,0,0,0,0,0,0,0],"sum_hessian":[7.153111E3,1.7772144E1,7.135339E3,1.5038302E1,2.7338414E0,4.6692686E3,2.46607E3,1.3131099E0,1.3725193E1,1.327855E0,1.4059865E0,3.4149043E3,1.2543644E3,7.2243256E2,1.7436376E3],"tree_param":{"num_deleted":"0","num_feature":"105","num_nodes":"15","size_leaf_vector":"0"}},{"base_weights":[-5.352431E-1,-4.837475E-1,-5.3941035E-1,4.733281E-3,-4.950769E-1,-5.4047674E-1,-3.1284186E-1,8.373813E-1,-4.8361754E-1,-1.6397414E-1,-5.089835E-1,-5.4070616E-1,6.0404975E-2,4.8720956E-2,-5.5129254E-1],"categories":[],"categories_nodes":[],"categories_segments":[],"categories_sizes":[],"default_left":[true,true,true,true,true,true,true,false,false,false,false,false,false,false,false],"id":38,"left_children":[1,3,5,7,9,11,13,-1,-1,-1,-1,-1,-1,-1,-1],"loss_changes":[5.545654E-1,1.6304245E0,6.7822266E-1,3.5192978E0,1.2404633E0,5.136719E-1,1.6479719E0,0E0,0E0,0E0,0E0,0E0,0E0,0E0,0E0],"parents":[2147483647,0,0,1,1,2,2,3,3,4,4,5,5,6,6],"right_children":[2,4,6,8,10,12,14,-1,-1,-1,-1,-1,-1,-1,-1],"split_conditions":[1.275E1,2.5E0,1.455E1,3.775E1,1.195E1,5.465E1,2.13E1,8.373813E-2,-4.8361756E-2,-1.6397415E-2,-5.089835E-2,-5.4070618E-2,6.0404977E-3,4.872096E-3,-5.5129256E-2],"split_indices":[70,97,25,5,18,68,74,0,0,0,0,0,0,0,0],"split_type":[0,0,0,0,0,0,0,0,0,0,0,0,0,0,0],"sum_hessian":[3.7991E3,2.9318716E2,3.505913E3,6.6589746E0,2.865282E2,3.4881099E3,1.7803162E1,2.1974926E0,4.461482E0,1.2064921E1,2.7446326E2,3.4868787E3,1.2312617E0,7.3913426E0,1.0411819E1],"tree_param":{"num_deleted":"0","num_feature":"105","num_nodes":"15","size_leaf_vector":"0"}},{"base_weights":[1.3634695E-1,2.4649002E-1,1.2787712E-1,8.126825E-1,2.2884947E-1,6.264928E-2,1.4569828E-1,8.835848E-1,8.046724E-2,6.004761E-1,2.0789103E-1,7.703312E-2,-3.4186977E-1,2.9452282E-1,1.3537064E-1],"categories":[],"categories_nodes":[],"categories_segments":[],"categories_sizes":[],"default_left":[true,true,true,true,true,true,true,false,false,false,false,false,false,false,false],"id":39,"left_children":[1,3,5,7,9,11,13,-1,-1,-1,-1,-1,-1,-1,-1],"loss_changes":[6.6930695E0,4.944315E0,7.7741547E0,7.142801E-1,3.7657948E0,8.396605E0,8.041893E0,0E0,0E0,0E0,0E0,0E0,0E0,0E0,0E0],"parents":[2147483647,0,0,1,1,2,2,3,3,4,4,5,5,6,6],"right_children":[2,4,6,8,10,12,14,-1,-1,-1,-1,-1,-1,-1,-1],"split_conditions":[9.3149994E1,2.665E-1,1.9425E2,7.15E0,3.995E-1,3.895E1,7.895E1,8.8358484E-2,8.046724E-3,6.0047608E-2,2.0789104E-2,7.7033117E-3,-3.4186978E-2,2.9452283E-2,1.3537064E-2],"split_indices":[76,10,104,73,59,5,58,0,0,0,0,0,0,0,0],"split_type":[0,0,0,0,0,0,0,0,0,0,0,0,0,0,0],"sum_hessian":[7.207317E3,5.126493E2,6.6946675E3,1.4127956E1,4.985213E2,1.4375518E3,5.2571157E3,1.2692208E1,1.4357479E0,2.5137772E1,4.7338354E2,1.3889724E3,4.8579357E1,3.3935706E2,4.917759E3],"tree_param":{"num_deleted":"0","num_feature":"105","num_nodes":"15","size_leaf_vector":"0"}},{"base_weights":[1.290518E-1,9.23734E-2,1.527578E-1,6.855211E-2,2.4931668E-1,1.1074374E-1,1.9927421E-1,1.3473663E-2,1.3156416E-1,6.3841254E-1,1.6724169E-1,3.4699842E-2,1.3949494E-1,3.6921954E-1,1.7395255E-1],"categories":[],"categories_nodes":[],"categories_segments":[],"categories_sizes":[],"default_left":[true,true,true,true,true,true,true,false,false,false,false,false,false,false,false],"id":40,"left_children":[1,3,5,7,9,11,13,-1,-1,-1,-1,-1,-1,-1,-1],"loss_changes":[6.2205048E0,1.0516396E1,8.486847E0,8.49284E0,1.1738358E1,5.001663E0,8.82193E0,0E0,0E0,0E0,0E0,0E0,0E0,0E0,0E0],"parents":[2147483647,0,0,1,1,2,2,3,3,4,4,5,5,6,6],"right_children":[2,4,6,8,10,12,14,-1,-1,-1,-1,-1,-1,-1,-1],"split_conditions":[4.825E1,4.785E-1,4.835E1,1.45E1,1.5E0,2.95E1,1.85E1,1.3473663E-3,1.3156416E-2,6.384125E-2,1.672417E-2,3.4699843E-3,1.3949494E-2,3.6921956E-2,1.7395256E-2],"split_indices":[4,7,56,27,2,52,0,0,0,0,0,0,0,0,0],"split_type":[0,0,0,0,0,0,0,0,0,0,0,0,0,0,0],"sum_hessian":[7.1693535E3,2.8165012E3,4.3528525E3,2.446588E3,3.6991324E2,2.2888882E3,2.0639644E3,1.3061255E3,1.1404625E3,6.3255783E1,3.0665744E2,6.2857635E2,1.6603118E3,2.6588782E2,1.7980764E3],"tree_param":{"num_deleted":"0","num_feature":"105","num_nodes":"15","size_leaf_vector":"0"}},{"base_weights":[-5.2669764E-1,-5.273523E-1,-2.2948073E-1,-5.283403E-1,-3.1658176E-1,-5.0954545E-1,3.3846E-1,-4.7620562E-1,-5.3258014E-1,-4.394898E-1,2.5324938E-1,-3.591318E-1,9.760278E-1],"categories":[],"categories_nodes":[],"categories_segments":[],"categories_sizes":[],"default_left":[true,true,true,true,true,false,true,false,false,false,false,false,false],"id":41,"left_children":[1,3,5,7,9,-1,11,-1,-1,-1,-1,-1,-1],"loss_changes":[5.838623E-1,5.853882E-1,1.7204581E0,5.4125977E-1,1.4671065E0,0E0,2.0473092E0,0E0,0E0,0E0,0E0,0E0,0E0],"parents":[2147483647,0,0,1,1,2,2,3,3,4,4,6,6],"right_children":[2,4,6,8,10,-1,12,-1,-1,-1,-1,-1,-1],"split_conditions":[1.19E1,1.455E1,2.25E1,1.275E1,1.45E1,-5.0954547E-2,1.2E1,-4.762056E-2,-5.3258013E-2,-4.3948982E-2,2.5324939E-2,-3.591318E-2,9.760278E-2],"split_indices":[71,25,40,70,34,0,89,0,0,0,0,0,0],"split_type":[0,0,0,0,0,0,0,0,0,0,0,0,0],"sum_hessian":[3.6219119E3,3.6131797E3,8.732151E0,3.5948213E3,1.8358467E1,5.917108E0,2.8150434E0,2.7888303E2,3.3159382E3,1.5289402E1,3.069066E0,1.5527859E0,1.2622575E0],"tree_param":{"num_deleted":"0","num_feature":"105","num_nodes":"13","size_leaf_vector":"0"}},{"base_weights":[1.2759277E-1,8.2612924E-2,1.4716224E-1,3.6787685E-2,1.4006948E-1,1.9829477E-1,1.1826432E-1,9.259194E-3,3.1571656E-1,6.550942E-2,2.0333281E-1,1.7958048E-1,3.844924E-1,1.3131483E-1,-3.60392E-2],"categories":[],"categories_nodes":[],"categories_segments":[],"categories_sizes":[],"default_left":[true,true,true,true,true,true,true,false,false,false,false,false,false,false,false],"id":42,"left_children":[1,3,5,7,9,11,13,-1,-1,-1,-1,-1,-1,-1,-1],"loss_changes":[6.345459E0,5.766246E0,7.411484E0,9.370777E0,4.5724964E0,6.256798E0,6.4835167E0,0E0,0E0,0E0,0E0,0E0,0E0,0E0,0E0],"parents":[2147483647,0,0,1,1,2,2,3,3,4,4,5,5,6,6],"right_children":[2,4,6,8,10,12,14,-1,-1,-1,-1,-1,-1,-1,-1],"split_conditions":[9.5E0,1.55E1,1.25E1,2.75E1,2.0025E2,2.55E1,2.125E1,9.2591945E-4,3.1571656E-2,6.5509425E-3,2.033328E-2,1.7958049E-2,3.844924E-2,1.3131483E-2,-3.60392E-3],"split_indices":[95,84,80,33,104,90,11,0,0,0,0,0,0,0,0],"split_type":[0,0,0,0,0,0,0,0,0,0,0,0,0,0,0],"sum_hessian":[7.2216655E3,2.19098E3,5.030685E3,1.2197737E3,9.712064E2,1.8143959E3,3.2162893E3,1.111144E3,1.086296E2,4.4673492E2,5.244715E2,1.6504749E3,1.6392096E2,2.965616E3,2.506735E2],"tree_param":{"num_deleted":"0","num_feature":"105","num_nodes":"15","size_leaf_vector":"0"}},{"base_weights":[1.2107291E-1,9.951107E-2,1.604241E-1,1.307384E-1,4.168888E-2,1.4653687E-1,3.1685618E-1,1.9934306E-1,8.958348E-2,7.2134525E-2,-9.1282316E-2,2.4097994E-1,1.18245564E-1,3.7569895E-1,-1.5217769E-1],"categories":[],"categories_nodes":[],"categories_segments":[],"categories_sizes":[],"default_left":[true,true,true,true,true,true,true,false,false,false,false,false,false,false,false],"id":43,"left_children":[1,3,5,7,9,11,13,-1,-1,-1,-1,-1,-1,-1,-1],"loss_changes":[6.0805893E0,8.380745E0,5.475357E0,8.495609E0,6.6061106E0,6.2141533E0,5.7533092E0,0E0,0E0,0E0,0E0,0E0,0E0,0E0,0E0],"parents":[2147483647,0,0,1,1,2,2,3,3,4,4,5,5,6,6],"right_children":[2,4,6,8,10,12,14,-1,-1,-1,-1,-1,-1,-1,-1],"split_conditions":[1.95E1,1.75E1,1.0945E2,1.15E1,2.75E1,1.9225E2,2.3375E2,1.9934306E-2,8.958348E-3,7.2134524E-3,-9.128232E-3,2.4097994E-2,1.1824557E-2,3.7569895E-2,-1.5217769E-2],"split_indices":[41,31,24,84,33,104,104,0,0,0,0,0,0,0,0],"split_type":[0,0,0,0,0,0,0,0,0,0,0,0,0,0,0],"sum_hessian":[7.184242E3,4.643462E3,2.5407805E3,3.0143025E3,1.6291592E3,2.335393E3,2.0538731E2,1.1287874E3,1.8855153E3,1.3260083E3,3.031509E2,5.365947E2,1.7987985E3,1.8266946E2,2.2717852E1],"tree_param":{"num_deleted":"0","num_feature":"105","num_nodes":"15","size_leaf_vector":"0"}},{"base_weights":[-5.185681E-1,-4.636561E-1,-5.230561E-1,3.3859216E-2,-4.7576964E-1,-5.242204E-1,-2.8375962E-1,8.1202644E-1,-4.6767908E-1,-4.8820996E-1,-6.285753E-2,-5.244737E-1,8.015167E-2,7.894341E-2,-5.359755E-1],"categories":[],"categories_nodes":[],"categories_segments":[],"categories_sizes":[],"default_left":[true,true,true,true,true,true,true,false,false,false,false,false,false,false,false],"id":44,"left_children":[1,3,5,7,9,11,13,-1,-1,-1,-1,-1,-1,-1,-1],"loss_changes":[6.088867E-1,1.6422615E0,7.388916E-1,3.247217E0,1.3227386E0,5.272827E-1,1.6529689E0,0E0,0E0,0E0,0E0,0E0,0E0,0E0,0E0],"parents":[2147483647,0,0,1,1,2,2,3,3,4,4,5,5,6,6],"right_children":[2,4,6,8,10,12,14,-1,-1,-1,-1,-1,-1,-1,-1],"split_conditions":[1.275E1,2.5E0,1.455E1,3.775E1,2.95E1,5.465E1,2.13E1,8.120265E-2,-4.676791E-2,-4.8821E-2,-6.285753E-3,-5.2447375E-2,8.015167E-3,7.894341E-3,-5.359755E-2],"split_indices":[70,97,25,5,36,68,74,0,0,0,0,0,0,0,0],"split_type":[0,0,0,0,0,0,0,0,0,0,0,0,0,0,0],"sum_hessian":[3.453702E3,2.6882578E2,3.184876E3,6.3471465E0,2.624786E2,3.1682693E3,1.6606762E1,2.2449298E0,4.1022167E0,2.5462485E2,7.8537674E0,3.167074E3,1.1952759E0,7.0932302E0,9.513532E0],"tree_param":{"num_deleted":"0","num_feature":"105","num_nodes":"15","size_leaf_vector":"0"}},{"base_weights":[1.19508594E-1,3.1700882E-1,1.1521237E-1,3.194316E-2,4.3303275E-1,1.2072376E-1,-3.78187E-2,2.820547E-1,-2.5564617E-1,-2.4515314E-1,4.878397E-1,1.2742287E-1,-2.922225E-3,2.016317E-2,-4.6328238E-1],"categories":[],"categories_nodes":[],"categories_segments":[],"categories_sizes":[],"default_left":[true,true,true,true,true,true,true,false,false,false,false,false,false,false,false],"id":45,"left_children":[1,3,5,7,9,11,13,-1,-1,-1,-1,-1,-1,-1,-1],"loss_changes":[6.102417E0,5.061817E0,5.9780807E0,3.3428588E0,4.1706676E0,5.6632233E0,6.101908E0,0E0,0E0,0E0,0E0,0E0,0E0,0E0,0E0],"parents":[2147483647,0,0,1,1,2,2,3,3,4,4,5,5,6,6],"right_children":[2,4,6,8,10,12,14,-1,-1,-1,-1,-1,-1,-1,-1],"split_conditions":[4.135E-1,4.155E1,4.895E1,8.21E1,1.5E0,2.175E1,4.925E1,2.820547E-2,-2.5564617E-2,-2.4515314E-2,4.878397E-2,1.27422875E-2,-2.922225E-4,2.0163169E-3,-4.632824E-2],"split_indices":[59,16,56,58,41,11,4,0,0,0,0,0,0,0,0],"split_type":[0,0,0,0,0,0,0,0,0,0,0,0,0,0,0],"sum_hessian":[7.234002E3,1.5246141E2,7.0815405E3,4.4471695E1,1.0798971E2,6.83557E3,2.459708E2,2.3795982E1,2.0675714E1,7.8148675E0,1.0017484E2,6.4842256E3,3.5134454E2,2.1730873E2,2.8662062E1],"tree_param":{"num_deleted":"0","num_feature":"105","num_nodes":"15","size_leaf_vector":"0"}},{"base_weights":[1.1368416E-1,-4.4802037E-1,1.15111046E-1,-6.398263E-1,4.750363E-1,1.8420327E-1,1.03029996E-1,1.1316517E-2,-6.993275E-1,-1.2551358E-2,7.425785E-1,1.6043174E-1,5.511828E-1,-1.4373657E-1,1.09747544E-1],"categories":[],"categories_nodes":[],"categories_segments":[],"categories_sizes":[],"default_left":[true,true,true,true,true,true,true,false,false,false,false,false,false,false,false],"id":46,"left_children":[1,3,5,7,9,11,13,-1,-1,-1,-1,-1,-1,-1,-1],"loss_changes":[5.8209076E0,3.5693576E0,5.9749146E0,6.160617E-1,4.9812323E-1,9.223709E0,1.0151367E1,0E0,0E0,0E0,0E0,0E0,0E0,0E0,0E0],"parents":[2147483647,0,0,1,1,2,2,3,3,4,4,5,5,6,6],"right_children":[2,4,6,8,10,12,14,-1,-1,-1,-1,-1,-1,-1,-1],"split_conditions":[8.505E1,1.42E1,1.9025E2,5.3500004E0,8.135E1,1.02149994E2,9.255E1,1.1316518E-3,-6.993275E-2,-1.2551359E-3,7.425785E-2,1.6043175E-2,5.511828E-2,-1.4373657E-2,1.0974755E-2],"split_indices":[76,25,104,19,6,24,24,0,0,0,0,0,0,0,0],"split_type":[0,0,0,0,0,0,0,0,0,0,0,0,0,0,0],"sum_hessian":[7.1972734E3,1.7443707E1,7.1798296E3,1.4696662E1,2.7470436E0,1.0664569E3,6.1133726E3,1.2983345E0,1.3398328E1,1.3109546E0,1.4360892E0,1.00292816E3,6.352869E1,1.6146924E2,5.9519033E3],"tree_param":{"num_deleted":"0","num_feature":"105","num_nodes":"15","size_leaf_vector":"0"}},{"base_weights":[-5.107754E-1,-4.538213E-1,-5.1545024E-1,4.015867E-2,-4.66271E-1,-5.1665956E-1,-2.7257162E-1,7.6389956E-1,-4.5972216E-1,-1.0646414E-1,-4.8195562E-1,-5.169495E-1,5.2453373E-2,8.0869146E-2,-5.2842087E-1],"categories":[],"categories_nodes":[],"categories_segments":[],"categories_sizes":[],"default_left":[true,true,true,true,true,true,true,false,false,false,false,false,false,false,false],"id":47,"left_children":[1,3,5,7,9,11,13,-1,-1,-1,-1,-1,-1,-1,-1],"loss_changes":[6.433716E-1,1.6072502E0,7.513428E-1,2.9815617E0,1.3709984E0,5.2563477E-1,1.5950828E0,0E0,0E0,0E0,0E0,0E0,0E0,0E0,0E0],"parents":[2147483647,0,0,1,1,2,2,3,3,4,4,5,5,6,6],"right_children":[2,4,6,8,10,12,14,-1,-1,-1,-1,-1,-1,-1,-1],"split_conditions":[1.275E1,2.5E0,1.455E1,3.775E1,1.195E1,9.25E0,2.13E1,7.638996E-2,-4.5972217E-2,-1.0646414E-2,-4.8195563E-2,-5.169495E-2,5.2453373E-3,8.086915E-3,-5.2842088E-2],"split_indices":[70,97,25,5,18,72,74,0,0,0,0,0,0,0,0],"split_type":[0,0,0,0,0,0,0,0,0,0,0,0,0,0,0],"sum_hessian":[3.2939407E3,2.5730017E2,3.0366404E3,6.2705774E0,2.5102959E2,3.0204736E3,1.6166782E1,2.3459234E0,3.924654E0,1.0811009E1,2.4021857E2,3.0190273E3,1.4463058E0,7.075841E0,9.090942E0],"tree_param":{"num_deleted":"0","num_feature":"105","num_nodes":"15","size_leaf_vector":"0"}},{"base_weights":[1.12025745E-1,2.1246827E-1,1.0391396E-1,5.8980775E-1,1.9177757E-1,6.1073914E-2,1.2931518E-1,6.7278033E-1,-5.2569705E-1,5.3095245E-1,1.6760024E-1,3.2220867E-1,4.939401E-2,1.676782E-1,6.815311E-2],"categories":[],"categories_nodes":[],"categories_segments":[],"categories_sizes":[],"default_left":[true,true,true,true,true,true,true,false,false,false,false,false,false,false,false],"id":48,"left_children":[1,3,5,7,9,11,13,-1,-1,-1,-1,-1,-1,-1,-1],"loss_changes":[5.8812714E0,4.1064987E0,7.289467E0,2.9094248E0,4.124748E0,7.6031704E0,9.864265E0,0E0,0E0,0E0,0E0,0E0,0E0,0E0,0E0],"parents":[2147483647,0,0,1,1,2,2,3,3,4,4,5,5,6,6],"right_children":[2,4,6,8,10,12,14,-1,-1,-1,-1,-1,-1,-1,-1],"split_conditions":[9.325E1,3.985E-1,2.0025E2,1.875E1,2.5E0,3.355E1,1.06649994E2,6.7278035E-2,-5.2569706E-2,5.3095248E-2,1.6760025E-2,3.2220867E-2,4.939401E-3,1.676782E-2,6.8153115E-3],"split_indices":[76,59,104,25,45,5,24,0,0,0,0,0,0,0,0],"split_type":[0,0,0,0,0,0,0,0,0,0,0,0,0,0,0],"sum_hessian":[7.244434E3,5.39462E2,6.7049717E3,2.6612867E1,5.128491E2,2.497037E3,4.207935E3,2.513982E1,1.4730477E0,3.273008E1,4.8011902E2,1.0576639E2,2.3912708E3,2.5848706E3,1.6230645E3],"tree_param":{"num_deleted":"0","num_feature":"105","num_nodes":"15","size_leaf_vector":"0"}},{"base_weights":[1.0683872E-1,7.4248165E-2,1.3071637E-1,1.4217998E-1,3.6282286E-2,4.221075E-3,1.4677323E-1,5.8084987E-2,2.1378016E-1,1.9979153E-2,2.4813965E-1,-4.9257714E-1,2.9162722E-2,1.9658011E-1,1.0418448E-1],"categories":[],"categories_nodes":[],"categories_segments":[],"categories_sizes":[],"default_left":[true,true,true,true,true,true,true,false,false,false,false,false,false,false,false],"id":49,"left_children":[1,3,5,7,9,11,13,-1,-1,-1,-1,-1,-1,-1,-1],"loss_changes":[5.6007156E0,7.8634167E0,8.448242E0,6.5715027E0,6.7594323E0,5.8328285E0,7.8091965E0,0E0,0E0,0E0,0E0,0E0,0E0,0E0,0E0],"parents":[2147483647,0,0,1,1,2,2,3,3,4,4,5,5,6,6],"right_children":[2,4,6,8,10,12,14,-1,-1,-1,-1,-1,-1,-1,-1],"split_conditions":[1.15E1,-1.55E0,9.325E1,9.7649994E1,2.2849998E1,2.5E0,2.0425E2,5.8084987E-3,2.1378016E-2,1.9979153E-3,2.4813965E-2,-4.9257714E-2,2.9162723E-3,1.9658012E-2,1.0418448E-2],"split_indices":[80,25,76,24,22,54,104,0,0,0,0,0,0,0,0],"split_type":[0,0,0,0,0,0,0,0,0,0,0,0,0,0,0],"sum_hessian":[7.2086167E3,3.04991E3,4.1587065E3,1.0924534E3,1.9574567E3,4.685731E2,3.6901335E3,5.0322397E2,5.892294E2,1.8186033E3,1.3885332E2,2.1503721E1,4.4706937E2,1.6992604E3,1.9908732E3],"tree_param":{"num_deleted":"0","num_feature":"105","num_nodes":"15","size_leaf_vector":"0"}},{"base_weights":[-5.0327045E-1,-4.443657E-1,-5.081298E-1,4.5092087E-2,-4.5713434E-1,-5.0938785E-1,-2.6082373E-1,-4.597569E-1,7.3403466E-1,-4.705298E-1,-3.0332949E-2,-5.0966585E-1,9.510398E-2,8.3769664E-2,-5.208057E-1],"categories":[],"categories_nodes":[],"categories_segments":[],"categories_sizes":[],"default_left":[true,true,true,true,true,true,true,false,false,false,false,false,false,false,false],"id":50,"left_children":[1,3,5,7,9,11,13,-1,-1,-1,-1,-1,-1,-1,-1],"loss_changes":[6.7388916E-1,1.5675125E0,7.684326E-1,2.8427916E0,1.3653641E0,5.325928E-1,1.5407468E0,0E0,0E0,0E0,0E0,0E0,0E0,0E0,0E0],"parents":[2147483647,0,0,1,1,2,2,3,3,4,4,5,5,6,6],"right_children":[2,4,6,8,10,12,14,-1,-1,-1,-1,-1,-1,-1,-1],"split_conditions":[1.275E1,2.5E0,1.455E1,1.75E1,2.95E1,5.465E1,2.13E1,-4.5975693E-2,7.340347E-2,-4.705298E-2,-3.033295E-3,-5.0966587E-2,9.510398E-3,8.376966E-3,-5.208057E-2],"split_indices":[70,97,25,48,36,68,74,0,0,0,0,0,0,0,0],"split_type":[0,0,0,0,0,0,0,0,0,0,0,0,0,0,0],"sum_hessian":[3.1423225E3,2.4651627E2,2.8958064E3,6.2030706E0,2.403132E2,2.8800952E3,1.5711145E1,3.771802E0,2.431269E0,2.3290097E2,7.4122186E0,2.8789282E3,1.1669894E0,7.0476356E0,8.663509E0],"tree_param":{"num_deleted":"0","num_feature":"105","num_nodes":"15","size_leaf_vector":"0"}},{"base_weights":[1.0510973E-1,7.329233E-2,1.305632E-1,-4.9864995E-1,7.739078E-2,1.7661642E-1,9.41223E-2,-6.0707086E-1,4.4985992E-1,3.680378E-2,1.3302109E-1,2.496903E-1,1.3709502E-1,2.1536747E-2,1.2974668E-1],"categories":[],"categories_nodes":[],"categories_segments":[],"categories_sizes":[],"default_left":[true,true,true,true,true,true,true,false,false,false,false,false,false,false,false],"id":51,"left_children":[1,3,5,7,9,11,13,-1,-1,-1,-1,-1,-1,-1,-1],"loss_changes":[5.865181E0,7.601179E0,6.744522E0,2.647499E0,7.2296753E0,5.1021004E0,5.8184853E0,0E0,0E0,0E0,0E0,0E0,0E0,0E0,0E0],"parents":[2147483647,0,0,1,1,2,2,3,3,4,4,5,5,6,6],"right_children":[2,4,6,8,10,12,14,-1,-1,-1,-1,-1,-1,-1,-1],"split_conditions":[1.35E1,2.775E1,1.65E1,1.65E1,1.75E1,1.65E1,1.35E1,-6.070709E-2,4.498599E-2,3.680378E-3,1.3302109E-2,2.496903E-2,1.3709502E-2,2.1536748E-3,1.2974667E-2],"split_indices":[102,67,80,30,49,53,91,0,0,0,0,0,0,0,0],"split_type":[0,0,0,0,0,0,0,0,0,0,0,0,0,0,0],"sum_hessian":[7.2530054E3,3.2252502E3,4.0277554E3,2.2088703E1,3.2031614E3,1.777519E3,2.2502363E3,2.0145872E1,1.9428312E0,1.852944E3,1.3502175E3,6.2204974E2,1.1554694E3,7.413407E2,1.5088956E3],"tree_param":{"num_deleted":"0","num_feature":"105","num_nodes":"15","size_leaf_vector":"0"}},{"base_weights":[1.0047245E-1,1.3153781E-1,7.520755E-2,6.7319614E-1,1.2743744E-1,8.9939244E-2,-5.9285417E-2,7.7251095E-1,-2.87639E-1,1.6771331E-1,7.166843E-2,1.455157E-1,5.8157634E-2,-2.3599975E-1,2.7562303E-2],"categories":[],"categories_nodes":[],"categories_segments":[],"categories_sizes":[],"default_left":[true,true,true,true,true,true,true,false,false,false,false,false,false,false,false],"id":52,"left_children":[1,3,5,7,9,11,13,-1,-1,-1,-1,-1,-1,-1,-1],"loss_changes":[5.6562424E0,7.102703E0,7.8981934E0,2.5203857E0,7.2060127E0,6.3339653E0,6.05141E0,0E0,0E0,0E0,0E0,0E0,0E0,0E0,0E0],"parents":[2147483647,0,0,1,1,2,2,3,3,4,4,5,5,6,6],"right_children":[2,4,6,8,10,12,14,-1,-1,-1,-1,-1,-1,-1,-1],"split_conditions":[1.35E1,2.775E1,3.85E0,1.65E1,1.75E1,3.125E1,1.855E1,7.72511E-2,-2.87639E-2,1.6771331E-2,7.1668434E-3,1.455157E-2,5.8157635E-3,-2.3599975E-2,2.7562303E-3],"split_indices":[102,67,77,30,49,15,9,0,0,0,0,0,0,0,0],"split_type":[0,0,0,0,0,0,0,0,0,0,0,0,0,0,0],"sum_hessian":[7.2182603E3,3.235603E3,3.9826572E3,2.3083595E1,3.2125193E3,3.5897812E3,3.9287585E2,2.1098764E1,1.9848313E0,1.8642023E3,1.3483171E3,1.3046913E3,2.28509E3,1.2889268E2,2.6398315E2],"tree_param":{"num_deleted":"0","num_feature":"105","num_nodes":"15","size_leaf_vector":"0"}},{"base_weights":[-4.9601412E-1,-4.9679554E-1,-1.6180508E-1,-4.9795285E-1,-2.6849034E-1,6.8847024E-1,-3.708991E-1,-4.3831643E-1,-5.0290465E-1,-4.0426576E-1,3.0288762E-1,1.6516826E-1,-4.8482117E-1],"categories":[],"categories_nodes":[],"categories_segments":[],"categories_sizes":[],"default_left":[true,true,true,true,true,false,true,false,false,false,false,false,false],"id":53,"left_children":[1,3,5,7,9,-1,11,-1,-1,-1,-1,-1,-1],"loss_changes":[7.029419E-1,6.5686035E-1,1.7629578E0,6.583252E-1,1.4615313E0,0E0,5.354134E-1,0E0,0E0,0E0,0E0,0E0,0E0],"parents":[2147483647,0,0,1,1,2,2,3,3,4,4,6,6],"right_children":[2,4,6,8,10,-1,12,-1,-1,-1,-1,-1,-1],"split_conditions":[1.19E1,1.455E1,3.5E0,1.275E1,1.45E1,6.884702E-2,2.885E1,-4.3831643E-2,-5.0290465E-2,-4.042658E-2,3.0288761E-2,1.6516825E-2,-4.8482116E-2],"split_indices":[71,25,43,70,34,0,67,0,0,0,0,0,0],"split_type":[0,0,0,0,0,0,0,0,0,0,0,0,0],"sum_hessian":[2.998518E3,2.9910383E3,7.479813E0,2.9747773E3,1.6260891E1,1.0238243E0,6.455989E0,2.3492934E2,2.7398481E3,1.3375072E1,2.8858197E0,1.0526838E0,5.403305E0],"tree_param":{"num_deleted":"0","num_feature":"105","num_nodes":"13","size_leaf_vector":"0"}},{"base_weights":[9.8672196E-2,-2.67315E-1,1.0080686E-1,5.124748E-1,-4.1864225E-1,5.911318E-2,1.18979655E-1,-3.042846E-1,8.644822E-1,-5.2786493E-1,3.824384E-1,1.3156256E-1,2.5898397E-2,3.6200786E-1,1.13609955E-1],"categories":[],"categories_nodes":[],"categories_segments":[],"categories_sizes":[],"default_left":[true,true,true,true,true,true,true,false,false,false,false,false,false,false,false],"id":54,"left_children":[1,3,5,7,9,11,13,-1,-1,-1,-1,-1,-1,-1,-1],"loss_changes":[5.6999207E0,5.215617E0,5.4634476E0,2.3725984E0,3.3555279E0,5.2753444E0,6.5194397E0,0E0,0E0,0E0,0E0,0E0,0E0,0E0,0E0],"parents":[2147483647,0,0,1,1,2,2,3,3,4,4,5,5,6,6],"right_children":[2,4,6,8,10,12,14,-1,-1,-1,-1,-1,-1,-1,-1],"split_conditions":[7.05E0,5.5E0,9.5E0,2.0625E2,2.65E1,3.675E1,3.355E1,-3.042846E-2,8.644822E-2,-5.2786496E-2,3.824384E-2,1.3156257E-2,2.5898397E-3,3.6200788E-2,1.13609955E-2],"split_indices":[14,100,95,104,49,5,5,0,0,0,0,0,0,0,0],"split_type":[0,0,0,0,0,0,0,0,0,0,0,0,0,0,0],"sum_hessian":[7.260318E3,4.1380737E1,7.218937E3,6.337427E0,3.504331E1,2.192639E3,5.026298E3,1.9495289E0,4.3878984E0,3.1138779E1,3.904532E0,6.883098E2,1.5043291E3,1.0721946E2,4.9190786E3],"tree_param":{"num_deleted":"0","num_feature":"105","num_nodes":"15","size_leaf_vector":"0"}},{"base_weights":[9.45611E-2,6.863278E-2,1.235981E-1,-1.1295975E-1,8.482463E-2,3.7484393E-1,1.0896755E-1,-1.0860845E-2,-3.580984E-1,6.643649E-2,2.046063E-1,1.4226474E-1,5.257816E-1,1.5546878E-1,4.3473974E-2],"categories":[],"categories_nodes":[],"categories_segments":[],"categories_sizes":[],"default_left":[true,true,true,true,true,true,true,false,false,false,false,false,false,false,false],"id":55,"left_children":[1,3,5,7,9,11,13,-1,-1,-1,-1,-1,-1,-1,-1],"loss_changes":[5.432991E0,1.1242792E1,1.2487011E1,7.834771E0,7.7134705E0,6.494461E0,9.805969E0,0E0,0E0,0E0,0E0,0E0,0E0,0E0,0E0],"parents":[2147483647,0,0,1,1,2,2,3,3,4,4,5,5,6,6],"right_children":[2,4,6,8,10,12,14,-1,-1,-1,-1,-1,-1,-1,-1],"split_conditions":[1.02149994E2,3.5E0,1.9525E2,2.0075E2,2.65E1,8.5E0,2.65E1,-1.0860845E-3,-3.580984E-2,6.643649E-3,2.046063E-2,1.4226474E-2,5.257816E-2,1.5546878E-2,4.3473975E-3],"split_indices":[24,53,104,104,91,45,1,0,0,0,0,0,0,0,0],"split_type":[0,0,0,0,0,0,0,0,0,0,0,0,0,0,0],"sum_hessian":[7.2265464E3,3.819407E3,3.4071396E3,3.1219083E2,3.507216E3,1.8613202E2,3.2210076E3,2.2113402E2,9.105681E1,3.0418108E3,4.6540527E2,7.401898E1,1.1211303E2,1.8828135E3,1.3381941E3],"tree_param":{"num_deleted":"0","num_feature":"105","num_nodes":"15","size_leaf_vector":"0"}},{"base_weights":[-4.8894507E-1,-4.2613584E-1,-4.9418938E-1,7.344519E-2,-4.3979666E-1,-4.9554655E-1,-2.3958951E-1,7.379214E-1,-4.4152674E-1,-5.3393815E-2,-4.5739138E-1,-2.0449318E-1,-4.964651E-1,-5.205435E-1,1.0053295E-1],"categories":[],"categories_nodes":[],"categories_segments":[],"categories_sizes":[],"default_left":[true,true,true,true,true,true,true,false,false,false,false,false,false,false,false],"id":56,"left_children":[1,3,5,7,9,11,13,-1,-1,-1,-1,-1,-1,-1,-1],"loss_changes":[7.3254395E-1,1.5876541E0,7.922363E-1,2.694732E0,1.4847336E0,5.9924316E-1,1.5731168E0,0E0,0E0,0E0,0E0,0E0,0E0,0E0,0E0],"parents":[2147483647,0,0,1,1,2,2,3,3,4,4,5,5,6,6],"right_children":[2,4,6,8,10,12,14,-1,-1,-1,-1,-1,-1,-1,-1],"split_conditions":[1.275E1,2.5E0,1.455E1,3.775E1,1.195E1,1.6650002E1,4.34E1,7.3792145E-2,-4.4152673E-2,-5.3393818E-3,-4.573914E-2,-2.0449318E-2,-4.9646508E-2,-5.2054353E-2,1.0053295E-2],"split_indices":[70,97,25,5,18,22,68,0,0,0,0,0,0,0,0],"split_type":[0,0,0,0,0,0,0,0,0,0,0,0,0,0,0],"sum_hessian":[2.862174E3,2.2690164E2,2.6352725E3,5.9228897E0,2.2097874E2,2.620358E3,1.4914659E1,2.3970299E0,3.5258598E0,9.799686E0,2.1117906E2,8.946941E0,2.611411E3,7.8772736E0,7.0373845E0],"tree_param":{"num_deleted":"0","num_feature":"105","num_nodes":"15","size_leaf_vector":"0"}},{"base_weights":[9.270098E-2,1.1244929E-1,5.660564E-2,1.0119511E-1,2.4854797E-1,-4.6073467E-2,7.8787275E-2,2.1252702E-1,8.6303785E-2,1.5931693E-1,4.9666134E-1,-3.8075778E-1,-1.5315299E-2,-3.045259E-2,1.0383961E-1],"categories":[],"categories_nodes":[],"categories_segments":[],"categories_sizes":[],"default_left":[true,true,true,true,true,true,true,false,false,false,false,false,false,false,false],"id":57,"left_children":[1,3,5,7,9,11,13,-1,-1,-1,-1,-1,-1,-1,-1],"loss_changes":[5.1739845E0,7.1681633E0,5.861639E0,7.1758003E0,7.8468113E0,4.7043447E0,5.792589E0,0E0,0E0,0E0,0E0,0E0,0E0,0E0,0E0],"parents":[2147483647,0,0,1,1,2,2,3,3,4,4,5,5,6,6],"right_children":[2,4,6,8,10,12,14,-1,-1,-1,-1,-1,-1,-1,-1],"split_conditions":[1.95E1,2.75E1,9.5E0,9.4350006E1,1.75E1,5.5E0,1.9025E2,2.1252703E-2,8.630379E-3,1.5931694E-2,4.9666133E-2,-3.807578E-2,-1.5315299E-3,-3.045259E-3,1.0383962E-2],"split_indices":[41,33,50,76,32,0,104,0,0,0,0,0,0,0,0],"split_type":[0,0,0,0,0,0,0,0,0,0,0,0,0,0,0],"sum_hessian":[7.2663833E3,4.6953633E3,2.5710198E3,4.338362E3,3.5700125E2,4.5655292E2,2.114467E3,5.1025742E2,3.8281045E3,2.6377853E2,9.3222725E1,3.7468906E1,4.19084E2,3.9441553E2,1.7200514E3],"tree_param":{"num_deleted":"0","num_feature":"105","num_nodes":"15","size_leaf_vector":"0"}},{"base_weights":[8.905085E-2,6.88754E-2,1.2584028E-1,3.3771086E-2,1.11380786E-1,-4.2174202E-1,1.294657E-1,6.7390306E-3,1.9320458E-1,6.899788E-2,1.9805115E-1,-6.089239E-1,3.5947502E-1,1.2056418E-1,3.5349715E-1],"categories":[],"categories_nodes":[],"categories_segments":[],"categories_sizes":[],"default_left":[true,true,true,true,true,true,true,false,false,false,false,false,false,false,false],"id":58,"left_children":[1,3,5,7,9,11,13,-1,-1,-1,-1,-1,-1,-1,-1],"loss_changes":[5.3612404E0,6.9712696E0,5.1390076E0,1.1038763E1,7.7516327E0,2.7165043E0,5.032776E0,0E0,0E0,0E0,0E0,0E0,0E0,0E0,0E0],"parents":[2147483647,0,0,1,1,2,2,3,3,4,4,5,5,6,6],"right_children":[2,4,6,8,10,12,14,-1,-1,-1,-1,-1,-1,-1,-1],"split_conditions":[1.95E1,4.835E1,1.695E1,4.785E-1,4.845E1,2.55E1,2.9349998E1,6.739031E-4,1.9320458E-2,6.8997885E-3,1.9805117E-2,-6.0892392E-2,3.59475E-2,1.2056418E-2,3.5349716E-2],"split_indices":[41,4,74,7,56,51,64,0,0,0,0,0,0,0,0],"split_type":[0,0,0,0,0,0,0,0,0,0,0,0,0,0,0],"sum_hessian":[7.2337007E3,4.67357E3,2.5601309E3,2.56061E3,2.11296E3,1.6080057E1,2.5440508E3,2.1902876E3,3.7032248E2,1.4202406E3,6.927195E2,1.31498575E1,2.9302E0,2.4483093E3,9.57414E1],"tree_param":{"num_deleted":"0","num_feature":"105","num_nodes":"15","size_leaf_vector":"0"}},{"base_weights":[-4.8205322E-1,-4.1721773E-1,-4.874986E-1,7.587939E-2,-4.3118232E-1,-4.8891273E-1,-2.2844976E-1,-4.4259983E-1,7.10843E-1,-4.4619027E-1,2.3695614E-2,-1.9620754E-1,-4.8986223E-1,1.1962303E-1,-5.067514E-1],"categories":[],"categories_nodes":[],"categories_segments":[],"categories_sizes":[],"default_left":[true,true,true,true,true,true,true,false,false,false,false,false,false,false,false],"id":59,"left_children":[1,3,5,7,9,11,13,-1,-1,-1,-1,-1,-1,-1,-1],"loss_changes":[7.6190186E-1,1.5391464E0,8.101196E-1,2.5780857E0,1.4639587E0,5.991211E-1,1.5658259E0,0E0,0E0,0E0,0E0,0E0,0E0,0E0,0E0],"parents":[2147483647,0,0,1,1,2,2,3,3,4,4,5,5,6,6],"right_children":[2,4,6,8,10,12,14,-1,-1,-1,-1,-1,-1,-1,-1],"split_conditions":[1.275E1,2.5E0,1.455E1,1.75E1,2.95E1,1.6650002E1,2.13E1,-4.4259984E-2,7.1084306E-2,-4.4619028E-2,2.3695615E-3,-1.9620754E-2,-4.8986223E-2,1.1962303E-2,-5.0675143E-2],"split_indices":[70,97,25,48,36,22,74,0,0,0,0,0,0,0,0],"split_type":[0,0,0,0,0,0,0,0,0,0,0,0,0,0,0],"sum_hessian":[2.7330337E3,2.1777011E2,2.5152637E3,5.8753357E0,2.1189478E2,2.500725E3,1.4538546E1,3.401112E0,2.4742236E0,2.0514546E2,6.749326E0,8.757313E0,2.4919678E3,6.7128854E0,7.82566E0],"tree_param":{"num_deleted":"0","num_feature":"105","num_nodes":"15","size_leaf_vector":"0"}},{"base_weights":[8.71435E-2,-2.5772557E-1,8.913578E-2,4.8278046E-1,-4.024689E-1,2.716109E-1,8.528443E-2,-3.0132166E-1,8.218912E-1,-5.0703454E-1,3.6031374E-1,4.4642016E-1,8.996234E-2,3.2759156E-2,9.9856086E-2],"categories":[],"categories_nodes":[],"categories_segments":[],"categories_sizes":[],"default_left":[true,true,true,true,true,true,true,false,false,false,false,false,false,false,false],"id":60,"left_children":[1,3,5,7,9,11,13,-1,-1,-1,-1,-1,-1,-1,-1],"loss_changes":[5.019806E0,4.6991024E0,5.0590324E0,2.1957793E0,3.0303383E0,4.691764E0,5.4183617E0,0E0,0E0,0E0,0E0,0E0,0E0,0E0,0E0],"parents":[2147483647,0,0,1,1,2,2,3,3,4,4,5,5,6,6],"right_children":[2,4,6,8,10,12,14,-1,-1,-1,-1,-1,-1,-1,-1],"split_conditions":[7.05E0,5.5E0,4.135E-1,2.0625E2,2.65E1,3.085E-1,1.9325E2,-3.0132165E-2,8.218912E-2,-5.0703455E-2,3.6031377E-2,4.4642016E-2,8.996234E-3,3.2759157E-3,9.985609E-3],"split_indices":[14,100,59,104,49,62,104,0,0,0,0,0,0,0,0],"split_type":[0,0,0,0,0,0,0,0,0,0,0,0,0,0,0],"sum_hessian":[7.2716245E3,4.102892E1,7.2305957E3,6.3266068E0,3.4702312E1,1.4801892E2,7.0825767E3,1.9437182E0,4.382889E0,3.0813538E1,3.8887737E0,7.468668E1,7.333224E1,1.5388517E3,5.543725E3],"tree_param":{"num_deleted":"0","num_feature":"105","num_nodes":"15","size_leaf_vector":"0"}},{"base_weights":[8.391103E-2,5.2375037E-2,1.0702436E-1,1.1868526E-1,1.5303242E-2,-4.1196393E-3,1.21076494E-1,3.3411287E-2,1.8109661E-1,3.8383547E-2,-1.3660306E-1,-6.753123E-1,1.178268E-2,1.678723E-1,8.101683E-2],"categories":[],"categories_nodes":[],"categories_segments":[],"categories_sizes":[],"default_left":[true,true,true,true,true,true,true,false,false,false,false,false,false,false,false],"id":61,"left_children":[1,3,5,7,9,11,13,-1,-1,-1,-1,-1,-1,-1,-1],"loss_changes":[5.2723503E0,7.5313244E0,6.5249977E0,5.8414755E0,6.9006257E0,5.022979E0,6.938759E0,0E0,0E0,0E0,0E0,0E0,0E0,0E0,0E0],"parents":[2147483647,0,0,1,1,2,2,3,3,4,4,5,5,6,6],"right_children":[2,4,6,8,10,12,14,-1,-1,-1,-1,-1,-1,-1,-1],"split_conditions":[1.15E1,-1.55E0,9.325E1,1.925E1,2.2075E2,2.665E-1,2.0425E2,3.3411288E-3,1.8109662E-2,3.8383547E-3,-1.3660306E-2,-6.753123E-2,1.178268E-3,1.678723E-2,8.101683E-3],"split_indices":[80,25,76,9,104,10,104,0,0,0,0,0,0,0,0],"split_type":[0,0,0,0,0,0,0,0,0,0,0,0,0,0,0],"sum_hessian":[7.239969E3,3.063446E3,4.1765234E3,1.0977328E3,1.9657131E3,4.6885645E2,3.7076667E3,4.6454727E2,6.3318555E2,1.7070892E3,2.5862402E2,9.891638E0,4.5896478E2,1.7085864E3,1.9990803E3],"tree_param":{"num_deleted":"0","num_feature":"105","num_nodes":"15","size_leaf_vector":"0"}},{"base_weights":[-4.7530335E-1,-4.085451E-1,-4.8094863E-1,7.7781186E-2,-4.228152E-1,-4.824174E-1,-2.1805151E-1,6.820351E-1,-4.3212897E-1,-2.4861015E-2,-4.4167525E-1,-3.7847507E-1,-4.8565865E-1,-5.0934356E-1,1.1676299E-1],"categories":[],"categories_nodes":[],"categories_segments":[],"categories_sizes":[],"default_left":[true,true,true,true,true,true,true,false,false,false,false,false,false,false,false],"id":62,"left_children":[1,3,5,7,9,11,13,-1,-1,-1,-1,-1,-1,-1,-1],"loss_changes":[7.8778076E-1,1.492199E0,8.2244873E-1,2.4018793E0,1.5234184E0,6.208496E-1,1.5392056E0,0E0,0E0,0E0,0E0,0E0,0E0,0E0,0E0],"parents":[2147483647,0,0,1,1,2,2,3,3,4,4,5,5,6,6],"right_children":[2,4,6,8,10,12,14,-1,-1,-1,-1,-1,-1,-1,-1],"split_conditions":[1.275E1,2.5E0,1.455E1,3.775E1,1.195E1,1.5E0,4.34E1,6.820351E-2,-4.3212898E-2,-2.4861016E-3,-4.4167526E-2,-3.7847508E-2,-4.8565865E-2,-5.0934356E-2,1.1676299E-2],"split_indices":[70,97,25,5,18,88,68,0,0,0,0,0,0,0,0],"split_type":[0,0,0,0,0,0,0,0,0,0,0,0,0,0,0],"sum_hessian":[2.61072E3,2.0927798E2,2.401442E3,5.8388453E0,2.0343913E2,2.3872695E3,1.4172264E1,2.5177276E0,3.3211179E0,9.310115E0,1.9412903E2,7.5752785E1,2.3115168E3,7.299956E0,6.8723083E0],"tree_param":{"num_deleted":"0","num_feature":"105","num_nodes":"15","size_leaf_vector":"0"}},{"base_weights":[8.19717E-2,4.1876327E-2,9.942604E-2,3.3409957E-2,3.2099998E-1,1.4563587E-1,7.330296E-2,3.8871847E-2,-4.072494E-1,1.9414644E-1,7.7478933E-1,1.5196489E-1,-3.584031E-1,8.5362196E-2,-6.943438E-2],"categories":[],"categories_nodes":[],"categories_segments":[],"categories_sizes":[],"default_left":[true,true,true,true,true,true,true,false,false,false,false,false,false,false,false],"id":63,"left_children":[1,3,5,7,9,11,13,-1,-1,-1,-1,-1,-1,-1,-1],"loss_changes":[5.0889473E0,5.209386E0,6.109066E0,5.178573E0,3.5862885E0,5.8919067E0,5.5842056E0,0E0,0E0,0E0,0E0,0E0,0E0,0E0,0E0],"parents":[2147483647,0,0,1,1,2,2,3,3,4,4,5,5,6,6],"right_children":[2,4,6,8,10,12,14,-1,-1,-1,-1,-1,-1,-1,-1],"split_conditions":[9.5E0,6.6499996E0,1.25E1,5.0049996E-1,2.05E1,8.305E-1,2.125E1,3.8871847E-3,-4.072494E-2,1.9414645E-2,7.747894E-2,1.5196489E-2,-3.584031E-2,8.53622E-3,-6.943438E-3],"split_indices":[95,21,80,7,86,13,11,0,0,0,0,0,0,0,0],"split_type":[0,0,0,0,0,0,0,0,0,0,0,0,0,0,0],"sum_hessian":[7.276559E3,2.2079495E3,5.0686094E3,2.1440364E3,6.3913155E1,1.8288792E3,3.2397302E3,2.1186875E3,2.5348938E1,5.106589E1,1.2847264E1,1.8068893E3,2.198988E1,2.9877136E3,2.520165E2],"tree_param":{"num_deleted":"0","num_feature":"105","num_nodes":"15","size_leaf_vector":"0"}},{"base_weights":[7.910126E-2,6.3462384E-2,1.2564126E-1,9.4496354E-2,7.018439E-3,2.0666066E-1,7.172071E-2,2.7118266E-1,8.42225E-2,-1.4881279E-1,3.573916E-2,4.7137612E-1,1.571839E-1,1.3050492E-1,-2.9158512E-2],"categories":[],"categories_nodes":[],"categories_segments":[],"categories_sizes":[],"default_left":[true,true,true,true,true,true,true,false,false,false,false,false,false,false,false],"id":64,"left_children":[1,3,5,7,9,11,13,-1,-1,-1,-1,-1,-1,-1,-1],"loss_changes":[5.2666473E0,9.504505E0,7.943516E0,6.3326664E0,8.625917E0,9.452908E0,6.4990835E0,0E0,0E0,0E0,0E0,0E0,0E0,0E0,0E0],"parents":[2147483647,0,0,1,1,2,2,3,3,4,4,5,5,6,6],"right_children":[2,4,6,8,10,12,14,-1,-1,-1,-1,-1,-1,-1,-1],"split_conditions":[1.0625E2,2.0375E2,2.1625E2,3.5E0,4.805E1,9.5E0,1.55E1,2.7118266E-2,8.422251E-3,-1.4881278E-2,3.5739162E-3,4.7137614E-2,1.5718391E-2,1.3050492E-2,-2.9158513E-3],"split_indices":[24,104,104,83,4,0,102,0,0,0,0,0,0,0,0],"split_type":[0,0,0,0,0,0,0,0,0,0,0,0,0,0,0],"sum_hessian":[7.246025E3,5.4253154E3,1.8207096E3,3.5001763E3,1.925139E3,7.2640393E2,1.0943057E3,1.9094652E2,3.3092297E3,2.9894724E2,1.6261918E3,1.1304612E2,6.133578E2,6.9122327E2,4.030824E2],"tree_param":{"num_deleted":"0","num_feature":"105","num_nodes":"15","size_leaf_vector":"0"}},{"base_weights":[-4.686722E-1,-3.9994144E-1,-4.7452304E-1,1.9741705E-1,-4.117236E-1,-4.7604796E-1,-2.0877926E-1,8.9441025E-1,-3.8333148E-1,-1.964501E-2,-4.307186E-1,-1.695204E-1,-4.7707823E-1,1.337284E-1,-4.9732938E-1],"categories":[],"categories_nodes":[],"categories_segments":[],"categories_sizes":[],"default_left":[true,true,true,true,true,true,true,false,false,false,false,false,false,false,false],"id":65,"left_children":[1,3,5,7,9,11,13,-1,-1,-1,-1,-1,-1,-1,-1],"loss_changes":[8.139038E-1,1.5042E0,8.3062744E-1,2.1993124E0,1.4705048E0,6.3946533E-1,1.5365374E0,0E0,0E0,0E0,0E0,0E0,0E0,0E0,0E0],"parents":[2147483647,0,0,1,1,2,2,3,3,4,4,5,5,6,6],"right_children":[2,4,6,8,10,12,14,-1,-1,-1,-1,-1,-1,-1,-1],"split_conditions":[1.275E1,3.775E1,1.455E1,2.5E0,1.195E1,1.6650002E1,2.13E1,8.9441024E-2,-3.8333148E-2,-1.9645009E-3,-4.3071862E-2,-1.695204E-2,-4.7707822E-2,1.337284E-2,-4.973294E-2],"split_indices":[70,68,25,26,18,22,74,0,0,0,0,0,0,0,0],"split_type":[0,0,0,0,0,0,0,0,0,0,0,0,0,0,0],"sum_hessian":[2.4949934E3,2.0117133E2,2.293822E3,3.58636E0,1.9758496E2,2.2799478E3,1.3874239E1,1.3845611E0,2.201799E0,9.224061E0,1.883609E2,8.192153E0,2.2717556E3,6.5893097E0,7.2849298E0],"tree_param":{"num_deleted":"0","num_feature":"105","num_nodes":"15","size_leaf_vector":"0"}},{"base_weights":[7.712776E-2,1.2282526E-1,6.219652E-2,3.318516E-1,1.0400599E-1,1.2909064E-2,8.506082E-2,4.6142963E-1,2.6003819E-2,2.011412E-2,1.5145242E-1,5.5219434E-2,-1.0654354E-1,3.6887977E-1,7.805438E-2],"categories":[],"categories_nodes":[],"categories_segments":[],"categories_sizes":[],"default_left":[true,true,true,true,true,true,true,false,false,false,false,false,false,false,false],"id":66,"left_children":[1,3,5,7,9,11,13,-1,-1,-1,-1,-1,-1,-1,-1],"loss_changes":[4.9606857E0,7.0155697E0,6.186043E0,5.836546E0,6.5472164E0,8.805088E0,7.428879E0,0E0,0E0,0E0,0E0,0E0,0E0,0E0,0E0],"parents":[2147483647,0,0,1,1,2,2,3,3,4,4,5,5,6,6],"right_children":[2,4,6,8,10,12,14,-1,-1,-1,-1,-1,-1,-1,-1],"split_conditions":[3.635E1,5.5E0,2.0125E2,2.045E1,1.9025E2,8.305E1,4.8500004E0,4.614296E-2,2.6003818E-3,2.011412E-3,1.5145242E-2,5.5219433E-3,-1.06543545E-2,3.6887977E-2,7.8054382E-3],"split_indices":[5,29,104,11,104,58,8,0,0,0,0,0,0,0,0],"split_type":[0,0,0,0,0,0,0,0,0,0,0,0,0,0,0],"sum_hessian":[7.2805127E3,1.7912168E3,5.4892954E3,1.4657446E2,1.6446423E3,1.7400088E3,3.7492869E3,1.02598175E2,4.3976284E1,5.946472E2,1.0499951E3,1.285293E3,4.5471582E2,8.908187E1,3.660205E3],"tree_param":{"num_deleted":"0","num_feature":"105","num_nodes":"15","size_leaf_vector":"0"}},{"base_weights":[7.461675E-2,1.357797E-1,6.380924E-2,1.1443598E-1,4.645931E-1,-1.623972E-1,6.996769E-2,-5.486723E-1,1.2592918E-1,-3.052084E-1,5.32238E-1,-3.4113297E-1,7.338373E-2,-5.171745E-2,7.928201E-2],"categories":[],"categories_nodes":[],"categories_segments":[],"categories_sizes":[],"default_left":[true,true,true,true,true,true,true,false,false,false,false,false,false,false,false],"id":67,"left_children":[1,3,5,7,9,11,13,-1,-1,-1,-1,-1,-1,-1,-1],"loss_changes":[4.785038E0,7.583334E0,8.599527E0,7.8665047E0,3.5992117E0,6.9233766E0,6.8070507E0,0E0,0E0,0E0,0E0,0E0,0E0,0E0,0E0],"parents":[2147483647,0,0,1,1,2,2,3,3,4,4,5,5,6,6],"right_children":[2,4,6,8,10,12,14,-1,-1,-1,-1,-1,-1,-1,-1],"split_conditions":[1.9025E2,1.02149994E2,9.255E1,7.455E1,1.795E1,2.85E1,9.4350006E1,-5.4867234E-2,1.2592918E-2,-3.0520841E-2,5.32238E-2,-3.41133E-2,7.3383735E-3,-5.171745E-3,7.928201E-3],"split_indices":[104,24,24,6,74,51,76,0,0,0,0,0,0,0,0],"split_type":[0,0,0,0,0,0,0,0,0,0,0,0,0,0,0],"sum_hessian":[7.2509824E3,1.0871144E3,6.163868E3,1.02211554E3,6.499887E1,1.6269092E2,6.0011772E3,1.6617523E1,1.005498E3,4.966621E0,6.0032246E1,9.228594E1,7.0404976E1,4.263716E2,5.5748057E3],"tree_param":{"num_deleted":"0","num_feature":"105","num_nodes":"15","size_leaf_vector":"0"}},{"base_weights":[-4.6211E-1,-3.910038E-1,-4.6819758E-1,-4.162156E-1,-7.155837E-2,-4.697783E-1,-1.9924954E-1,-2.249956E-1,-4.6960106E-1,8.914751E-1,-2.867013E-1,-3.5854757E-1,-4.732905E-1,-4.9981686E-1,1.294721E-1],"categories":[],"categories_nodes":[],"categories_segments":[],"categories_sizes":[],"default_left":[true,true,true,true,true,true,true,false,false,false,false,false,false,false,false],"id":68,"left_children":[1,3,5,7,9,11,13,-1,-1,-1,-1,-1,-1,-1,-1],"loss_changes":[8.4988403E-1,1.5346642E0,8.387146E-1,1.7301407E0,3.4498475E0,6.817322E-1,1.502352E0,0E0,0E0,0E0,0E0,0E0,0E0,0E0,0E0],"parents":[2147483647,0,0,1,1,2,2,3,3,4,4,5,5,6,6],"right_children":[2,4,6,8,10,12,14,-1,-1,-1,-1,-1,-1,-1,-1],"split_conditions":[1.275E1,2.85E1,1.455E1,6.5E0,1.605E1,1.5E0,4.34E1,-2.249956E-2,-4.6960108E-2,8.914751E-2,-2.867013E-2,-3.5854757E-2,-4.732905E-2,-4.9981687E-2,1.2947211E-2],"split_indices":[70,45,25,34,9,88,68,0,0,0,0,0,0,0,0],"split_type":[0,0,0,0,0,0,0,0,0,0,0,0,0,0,0],"sum_hessian":[2.385285E3,1.932498E2,2.1920352E3,1.7883273E2,1.4417071E1,2.1784846E3,1.35505705E1,4.016855E1,1.3866418E2,2.058604E0,1.2358467E1,6.983727E1,2.1086472E3,6.806524E0,6.7440467E0],"tree_param":{"num_deleted":"0","num_feature":"105","num_nodes":"15","size_leaf_vector":"0"}},{"base_weights":[7.2623976E-2,5.662256E-1,7.1281716E-2,6.8556666E-1,-5.350658E-1,2.2381779E-2,8.509488E-2,5.578184E-2,7.3374015E-1,4.169104E-2,-2.1635516E-1,2.4430202E-1,7.57389E-2],"categories":[],"categories_nodes":[],"categories_segments":[],"categories_sizes":[],"default_left":[true,true,true,true,false,true,true,false,false,false,false,false,false],"id":69,"left_children":[1,3,5,7,-1,9,11,-1,-1,-1,-1,-1,-1],"loss_changes":[4.7859993E0,2.944343E0,4.9060173E0,5.091877E-1,0E0,7.3928995E0,8.420113E0,0E0,0E0,0E0,0E0,0E0,0E0],"parents":[2147483647,0,0,1,1,2,2,3,3,5,5,6,6],"right_children":[2,4,6,8,-1,10,12,-1,-1,-1,-1,-1,-1],"split_conditions":[8.505E1,1.915E1,1.9325E2,5.3500004E0,-5.3506583E-2,1.02149994E2,9.425E1,5.578184E-3,7.337402E-2,4.169104E-3,-2.1635516E-2,2.4430202E-2,7.57389E-3],"split_indices":[76,25,104,19,0,24,76,0,0,0,0,0,0],"split_type":[0,0,0,0,0,0,0,0,0,0,0,0,0],"sum_hessian":[7.283631E3,1.8611452E1,7.265019E3,1.7132395E1,1.479058E0,1.6007671E3,5.664252E3,1.3707067E0,1.5761687E1,1.4817473E3,1.1901971E2,3.1299667E2,5.3512554E3],"tree_param":{"num_deleted":"0","num_feature":"105","num_nodes":"13","size_leaf_vector":"0"}},{"base_weights":[7.0406795E-2,4.0381838E-2,9.241656E-2,1.0538189E-1,4.030057E-3,7.880367E-2,2.028342E-1,5.649164E-2,2.0584878E-1,-2.4027E-1,1.699881E-2,1.1201951E-1,1.822746E-2,1.518788E-1,4.6385673E-1],"categories":[],"categories_nodes":[],"categories_segments":[],"categories_sizes":[],"default_left":[true,true,true,true,true,true,true,false,false,false,false,false,false,false,false],"id":70,"left_children":[1,3,5,7,9,11,13,-1,-1,-1,-1,-1,-1,-1,-1],"loss_changes":[4.7914505E0,7.255958E0,6.276249E0,5.3984604E0,6.2473807E0,7.499729E0,6.032007E0,0E0,0E0,0E0,0E0,0E0,0E0,0E0,0E0],"parents":[2147483647,0,0,1,1,2,2,3,3,4,4,5,5,6,6],"right_children":[2,4,6,8,10,12,14,-1,-1,-1,-1,-1,-1,-1,-1],"split_conditions":[1.15E1,-1.55E0,4.005E1,1.55E1,3.2950002E-1,2.0675E2,3.765E-1,5.649164E-3,2.058488E-2,-2.4027001E-2,1.699881E-3,1.1201951E-2,1.822746E-3,1.5187881E-2,4.6385672E-2],"split_indices":[80,25,57,99,62,104,10,0,0,0,0,0,0,0,0],"split_type":[0,0,0,0,0,0,0,0,0,0,0,0,0,0,0],"sum_hessian":[7.255169E3,3.0700073E3,4.1851616E3,1.1004359E3,1.9695714E3,3.7273477E3,4.57814E2,7.412725E2,3.5916345E2,9.840129E1,1.8711702E3,2.4067837E3,1.3205638E3,3.8436267E2,7.345134E1],"tree_param":{"num_deleted":"0","num_feature":"105","num_nodes":"15","size_leaf_vector":"0"}},{"base_weights":[-4.5561808E-1,-3.8245293E-1,-4.61927E-1,-4.081955E-1,-6.4098984E-2,-4.635636E-1,-1.9098973E-1,-2.1507691E-1,-4.6316004E-1,1.0774246E0,-2.3507768E-1,-3.495146E-1,-4.672014E-1,1.4183027E-1,-4.9380702E-1],"categories":[],"categories_nodes":[],"categories_segments":[],"categories_sizes":[],"default_left":[true,true,true,true,true,true,true,false,false,false,false,false,false,false,false],"id":71,"left_children":[1,3,5,7,9,11,13,-1,-1,-1,-1,-1,-1,-1,-1],"loss_changes":[8.768921E-1,1.5063477E0,8.4103394E-1,1.7348595E0,3.215303E0,7.0098877E-1,1.5100555E0,0E0,0E0,0E0,0E0,0E0,0E0,0E0,0E0],"parents":[2147483647,0,0,1,1,2,2,3,3,4,4,5,5,6,6],"right_children":[2,4,6,8,10,12,14,-1,-1,-1,-1,-1,-1,-1,-1],"split_conditions":[1.275E1,2.85E1,1.455E1,6.5E0,1.4200001E1,1.5E0,1.615E1,-2.1507692E-2,-4.6316005E-2,1.07742466E-1,-2.3507768E-2,-3.495146E-2,-4.6720143E-2,1.4183027E-2,-4.93807E-2],"split_indices":[70,45,25,34,9,88,25,0,0,0,0,0,0,0,0],"split_type":[0,0,0,0,0,0,0,0,0,0,0,0,0,0,0],"sum_hessian":[2.2814434E3,1.8600041E2,2.0954429E3,1.7182425E2,1.4176157E1,2.0821548E3,1.3288219E1,3.9157368E1,1.3266689E2,1.1560929E0,1.3020063E1,6.7362236E1,2.0147925E3,6.5837693E0,6.7044497E0],"tree_param":{"num_deleted":"0","num_feature":"105","num_nodes":"15","size_leaf_vector":"0"}},{"base_weights":[6.840755E-2,3.9670408E-2,9.14446E-2,-4.760831E-1,4.3276533E-2,1.3520817E-1,5.6854248E-2,-5.798075E-1,4.033406E-1,6.927866E-3,9.3079545E-2,-1.7567197E-2,1.5229404E-1,7.838836E-2,-5.5761024E-2],"categories":[],"categories_nodes":[],"categories_segments":[],"categories_sizes":[],"default_left":[true,true,true,true,true,true,true,false,false,false,false,false,false,false,false],"id":72,"left_children":[1,3,5,7,9,11,13,-1,-1,-1,-1,-1,-1,-1,-1],"loss_changes":[4.82098E0,6.0548787E0,6.1145096E0,2.2963758E0,5.8335824E0,4.661194E0,5.4864807E0,0E0,0E0,0E0,0E0,0E0,0E0,0E0,0E0],"parents":[2147483647,0,0,1,1,2,2,3,3,4,4,5,5,6,6],"right_children":[2,4,6,8,10,12,14,-1,-1,-1,-1,-1,-1,-1,-1],"split_conditions":[1.35E1,2.775E1,1.65E1,1.65E1,1.75E1,1.8425E2,2.75E1,-5.7980753E-2,4.033406E-2,6.927866E-4,9.307954E-3,-1.7567197E-3,1.5229404E-2,7.838837E-3,-5.5761025E-3],"split_indices":[102,67,80,30,49,104,86,0,0,0,0,0,0,0,0],"split_type":[0,0,0,0,0,0,0,0,0,0,0,0,0,0,0],"sum_hessian":[7.2867197E3,3.2434548E3,4.0432651E3,2.1610916E1,3.2218438E3,1.7836675E3,2.2595977E3,1.9635666E1,1.9752501E0,1.8631587E3,1.3586852E3,1.7941135E2,1.6042561E3,1.8971345E3,3.624632E2],"tree_param":{"num_deleted":"0","num_feature":"105","num_nodes":"15","size_leaf_vector":"0"}},{"base_weights":[6.646628E-2,4.249149E-2,9.4086215E-2,-1.2177087E-1,5.6947403E-2,1.3820764E-1,3.374425E-2,-2.1271229E-2,-3.6156526E-1,3.9395582E-2,1.7075609E-1,3.522996E-1,1.13622904E-1,1.2048732E-1,-1.3987621E-2],"categories":[],"categories_nodes":[],"categories_segments":[],"categories_sizes":[],"default_left":[true,true,true,true,true,true,true,false,false,false,false,false,false,false,false],"id":73,"left_children":[1,3,5,7,9,11,13,-1,-1,-1,-1,-1,-1,-1,-1],"loss_changes":[4.80365E0,9.2403E0,8.975161E0,7.5797663E0,7.133727E0,1.0212898E1,5.905469E0,0E0,0E0,0E0,0E0,0E0,0E0,0E0,0E0],"parents":[2147483647,0,0,1,1,2,2,3,3,4,4,5,5,6,6],"right_children":[2,4,6,8,10,12,14,-1,-1,-1,-1,-1,-1,-1,-1],"split_conditions":[1.0225E2,3.5E0,2.65E1,2.0075E2,2.65E1,1.9975E2,7.55E0,-2.1271228E-3,-3.6156528E-2,3.9395583E-3,1.707561E-2,3.5229962E-2,1.1362291E-2,1.2048732E-2,-1.3987621E-3],"split_indices":[24,53,1,104,91,104,19,0,0,0,0,0,0,0,0],"split_type":[0,0,0,0,0,0,0,0,0,0,0,0,0,0,0],"sum_hessian":[7.2593115E3,3.8874487E3,3.3718628E3,3.1384204E2,3.5736067E3,1.9469689E3,1.4248939E3,2.2192168E2,9.192036E1,3.0972832E3,4.763235E2,1.991732E2,1.7477957E3,5.0522495E2,9.1966895E2],"tree_param":{"num_deleted":"0","num_feature":"105","num_nodes":"15","size_leaf_vector":"0"}},{"base_weights":[-4.4917792E-1,-3.7403247E-1,-4.557091E-1,2.4150118E-1,-3.8697734E-1,-4.5740494E-1,-1.8240675E-1,8.8655937E-1,-3.627859E-1,-1.2813494E-1,-4.221642E-1,-1.2418844E-1,-4.5857587E-1,1.5590632E-1,-4.8589736E-1],"categories":[],"categories_nodes":[],"categories_segments":[],"categories_sizes":[],"default_left":[true,true,true,true,true,true,true,false,false,false,false,false,false,false,false],"id":74,"left_children":[1,3,5,7,9,11,13,-1,-1,-1,-1,-1,-1,-1,-1],"loss_changes":[9.015198E-1,1.5295906E0,8.458557E-1,2.0087342E0,1.557169E0,7.2024536E-1,1.5160286E0,0E0,0E0,0E0,0E0,0E0,0E0,0E0,0E0],"parents":[2147483647,0,0,1,1,2,2,3,3,4,4,5,5,6,6],"right_children":[2,4,6,8,10,12,14,-1,-1,-1,-1,-1,-1,-1,-1],"split_conditions":[1.275E1,3.775E1,1.455E1,2.5E0,3.5E0,1.6650002E1,2.13E1,8.865594E-2,-3.627859E-2,-1.2813494E-2,-4.221642E-2,-1.2418844E-2,-4.585759E-2,1.5590632E-2,-4.8589736E-2],"split_indices":[70,68,25,26,36,22,74,0,0,0,0,0,0,0,0],"split_type":[0,0,0,0,0,0,0,0,0,0,0,0,0,0,0],"sum_hessian":[2.1832144E3,1.7923753E2,2.0039769E3,3.3281212E0,1.7590941E2,1.9909493E3,1.302753E1,1.3838195E0,1.9443016E0,2.160675E1,1.5430266E2,7.3465195E0,1.9836029E3,6.3902984E0,6.637231E0],"tree_param":{"num_deleted":"0","num_feature":"105","num_nodes":"15","size_leaf_vector":"0"}},{"base_weights":[6.4462595E-2,4.059288E-2,9.100118E-2,4.6893667E-2,-1.8279167E-1,1.1736309E-1,3.5659607E-2,2.6485413E-1,4.097091E-2,-2.6399946E-1,3.1091776E-1,4.2560827E-2,1.5110438E-1,8.860914E-2,-7.923424E-2],"categories":[],"categories_nodes":[],"categories_segments":[],"categories_sizes":[],"default_left":[true,true,true,true,true,true,true,false,false,false,false,false,false,false,false],"id":75,"left_children":[1,3,5,7,9,11,13,-1,-1,-1,-1,-1,-1,-1,-1],"loss_changes":[4.61392E0,5.4126406E0,5.0304127E0,4.8107004E0,4.313098E0,5.892086E0,6.789547E0,0E0,0E0,0E0,0E0,0E0,0E0,0E0,0E0],"parents":[2147483647,0,0,1,1,2,2,3,3,4,4,5,5,6,6],"right_children":[2,4,6,8,10,12,14,-1,-1,-1,-1,-1,-1,-1,-1],"split_conditions":[1.65E1,4.935E-1,2.05E1,9.255E1,3.85E1,9.5E0,3.825E1,2.6485413E-2,4.097091E-3,-2.6399946E-2,3.1091778E-2,4.2560827E-3,1.5110438E-2,8.860914E-3,-7.923424E-3],"split_indices":[84,7,45,76,54,37,5,0,0,0,0,0,0,0,0],"split_type":[0,0,0,0,0,0,0,0,0,0,0,0,0,0,0],"sum_hessian":[7.2884146E3,3.838482E3,3.4499329E3,3.733952E3,1.045299E2,2.3360413E3,1.1138916E3,9.762396E1,3.6363281E3,9.016447E1,1.4365429E1,7.268726E2,1.6091686E3,7.626489E2,3.512426E2],"tree_param":{"num_deleted":"0","num_feature":"105","num_nodes":"15","size_leaf_vector":"0"}},{"base_weights":[6.277953E-2,4.506256E-2,9.900685E-2,1.044525E-1,2.1799203E-2,1.2976119E-1,2.814255E-2,3.7409672E-1,8.7494604E-2,4.688652E-2,-8.993392E-2,1.675422E-1,3.2728437E-2,-3.9458534E-1,4.9695145E-2],"categories":[],"categories_nodes":[],"categories_segments":[],"categories_sizes":[],"default_left":[true,true,true,true,true,true,true,false,false,false,false,false,false,false,false],"id":76,"left_children":[1,3,5,7,9,11,13,-1,-1,-1,-1,-1,-1,-1,-1],"loss_changes":[4.6571865E0,6.739167E0,5.1931896E0,6.245822E0,9.835565E0,6.089594E0,6.606293E0,0E0,0E0,0E0,0E0,0E0,0E0,0E0,0E0],"parents":[2147483647,0,0,1,1,2,2,3,3,4,4,5,5,6,6],"right_children":[2,4,6,8,10,12,14,-1,-1,-1,-1,-1,-1,-1,-1],"split_conditions":[2.2849998E1,1.9325E2,1.55E1,3.75E0,3.55E0,2.05E1,2.5E0,3.7409674E-2,8.749461E-3,4.6886518E-3,-8.993392E-3,1.6754221E-2,3.2728438E-3,-3.9458536E-2,4.9695144E-3],"split_indices":[69,104,102,72,77,82,1,0,0,0,0,0,0,0,0],"split_type":[0,0,0,0,0,0,0,0,0,0,0,0,0,0,0],"sum_hessian":[7.2619595E3,4.8784146E3,2.383545E3,1.3720822E3,3.5063325E3,1.661598E3,7.2194684E2,7.9938286E1,1.2921438E3,2.8638875E3,6.424451E2,1.195419E3,4.6617908E2,3.4182903E1,6.877639E2],"tree_param":{"num_deleted":"0","num_feature":"105","num_nodes":"15","size_leaf_vector":"0"}},{"base_weights":[-4.4276634E-1,-3.6558005E-1,-4.4952607E-1,-7.114734E-2,-3.9615747E-1,-4.507406E-1,-6.581382E-2,-3.607523E-1,7.4865973E-1,4.3489262E-2,-4.2133996E-1,-3.30875E-1,-4.5462123E-1,-4.488436E-1,7.4878776E-1],"categories":[],"categories_nodes":[],"categories_segments":[],"categories_sizes":[],"default_left":[true,true,true,true,true,true,true,false,false,false,false,false,false,false,false],"id":77,"left_children":[1,3,5,7,9,11,13,-1,-1,-1,-1,-1,-1,-1,-1],"loss_changes":[9.267273E-1,1.5359821E0,8.6434937E-1,4.440243E0,1.7584572E0,7.3898315E-1,2.5900476E0,0E0,0E0,0E0,0E0,0E0,0E0,0E0,0E0],"parents":[2147483647,0,0,1,1,2,2,3,3,4,4,5,5,6,6],"right_children":[2,4,6,8,10,12,14,-1,-1,-1,-1,-1,-1,-1,-1],"split_conditions":[1.275E1,6.1499996E0,1.505E1,1.75E1,3.75E0,1.5E0,2.35E1,-3.607523E-2,7.4865974E-2,4.3489262E-3,-4.2133998E-2,-3.3087503E-2,-4.5462124E-2,-4.488436E-2,7.4878775E-2],"split_indices":[70,19,66,78,20,88,40,0,0,0,0,0,0,0,0],"split_type":[0,0,0,0,0,0,0,0,0,0,0,0,0,0,0],"sum_hessian":[2.0900798E3,1.7273843E2,1.9173414E3,1.656448E1,1.5617395E2,1.9111176E3,6.223841E0,1.2654209E1,3.91027E0,8.42146E0,1.4775249E2,6.2636856E1,1.8484807E3,4.5387163E0,1.6851251E0],"tree_param":{"num_deleted":"0","num_feature":"105","num_nodes":"15","size_leaf_vector":"0"}},{"base_weights":[6.077136E-2,5.7705738E-2,2.584868E-1,7.474847E-2,9.0530375E-3,7.025986E-2,4.1855633E-1,4.5052502E-2,1.3205811E-1,-2.7653381E-2,1.163763E-1,5.333797E-1,-1.02856226E-1,-6.5308344E-1,4.852862E-1],"categories":[],"categories_nodes":[],"categories_segments":[],"categories_sizes":[],"default_left":[true,true,true,true,true,true,true,false,false,false,false,false,false,false,false],"id":78,"left_children":[1,3,5,7,9,11,13,-1,-1,-1,-1,-1,-1,-1,-1],"loss_changes":[4.404375E0,5.95368E0,3.3160596E0,9.044588E0,7.3465624E0,4.242465E0,4.593606E0,0E0,0E0,0E0,0E0,0E0,0E0,0E0,0E0],"parents":[2147483647,0,0,1,1,2,2,3,3,4,4,5,5,6,6],"right_children":[2,4,6,8,10,12,14,-1,-1,-1,-1,-1,-1,-1,-1],"split_conditions":[2.3375E2,1.0575E2,4.8650002E-1,2.0375E2,3.75E1,1.755E1,3.42E-1,4.50525E-3,1.3205811E-2,-2.7653382E-3,1.1637631E-2,5.333797E-2,-1.0285622E-2,-6.530835E-2,4.8528623E-2],"split_indices":[104,24,3,104,1,63,10,0,0,0,0,0,0,0,0],"split_type":[0,0,0,0,0,0,0,0,0,0,0,0,0,0,0],"sum_hessian":[7.2900996E3,7.180063E3,1.10036674E2,5.317011E3,1.8630518E3,5.1231777E1,5.88049E1,3.5034338E3,1.8135776E3,1.3888003E3,4.7425146E2,1.3373626E1,3.785815E1,2.931992E0,5.587291E1],"tree_param":{"num_deleted":"0","num_feature":"105","num_nodes":"15","size_leaf_vector":"0"}},{"base_weights":[5.930861E-2,5.323174E-2,1.6336042E-1,3.2864306E-2,8.892952E-2,-4.4794127E-1,1.8016273E-1,-2.7438417E-2,5.6483176E-2,-4.5215018E-2,1.0273951E-1,-7.6717633E-1,3.5427314E-1,-2.1794437E-1,2.0698714E-1],"categories":[],"categories_nodes":[],"categories_segments":[],"categories_sizes":[],"default_left":[true,true,true,true,true,true,true,false,false,false,false,false,false,false,false],"id":79,"left_children":[1,3,5,7,9,11,13,-1,-1,-1,-1,-1,-1,-1,-1],"loss_changes":[4.5854683E0,4.989338E0,4.1936865E0,6.2305894E0,4.624485E0,3.0885324E0,4.2145805E0,0E0,0E0,0E0,0E0,0E0,0E0,0E0,0E0],"parents":[2147483647,0,0,1,1,2,2,3,3,4,4,5,5,6,6],"right_children":[2,4,6,8,10,12,14,-1,-1,-1,-1,-1,-1,-1,-1],"split_conditions":[2.175E1,1.95E1,3.15E0,3.695E1,1.525E1,2.25E1,2.975E-1,-2.7438418E-3,5.6483177E-3,-4.5215017E-3,1.0273951E-2,-7.671764E-2,3.5427313E-2,-2.1794436E-2,2.0698715E-2],"split_indices":[11,41,20,5,63,87,62,0,0,0,0,0,0,0,0],"split_type":[0,0,0,0,0,0,0,0,0,0,0,0,0,0,0],"sum_hessian":[7.2646885E3,6.865253E3,3.9943536E2,4.3724595E3,2.4927935E3,9.99882E0,3.8943655E2,1.2305381E3,3.1419214E3,2.324637E2,2.2603298E3,7.1837707E0,2.81505E0,2.4133978E1,3.6530258E2],"tree_param":{"num_deleted":"0","num_feature":"105","num_nodes":"15","size_leaf_vector":"0"}},{"base_weights":[-4.3636167E-1,-3.572556E-1,-4.4334713E-1,1.5810513E-1,-3.7430832E-1,-4.4519094E-1,-1.5709195E-1,-4.0494114E-1,7.251349E-1,-3.9381778E-1,1.6924699E-1,-3.209826E-1,-4.4925746E-1,-4.830592E-1,1.7873995E-1],"categories":[],"categories_nodes":[],"categories_segments":[],"categories_sizes":[],"default_left":[true,true,true,true,true,true,true,false,false,false,false,false,false,false,false],"id":80,"left_children":[1,3,5,7,9,11,13,-1,-1,-1,-1,-1,-1,-1,-1],"loss_changes":[9.483948E-1,1.5326939E0,8.992615E-1,2.232618E0,1.7908821E0,7.770996E-1,1.5420024E0,0E0,0E0,0E0,0E0,0E0,0E0,0E0,0E0],"parents":[2147483647,0,0,1,1,2,2,3,3,4,4,5,5,6,6],"right_children":[2,4,6,8,10,12,14,-1,-1,-1,-1,-1,-1,-1,-1],"split_conditions":[1.275E1,2.5E0,1.455E1,1.75E1,2.95E1,1.5E0,2.5E0,-4.0494114E-2,7.251349E-2,-3.938178E-2,